{"learner":{"attributes":{},"feature_names":[],"feature_types":[],"gradient_booster":{"model":{"gbtree_model_param":{"num_parallel_tree":"1","num_trees":"100"},"iteration_indptr":[0,1,2,3,4,5,6,7,8,9,10,11,12,13,14,15,16,17,18,19,20,21,22,23,24,25,26,27,28,29,30,31,32,33,34,35,36,37,38,39,40,41,42,43,44,45,46,47,48,49,50,51,52,53,54,55,56,57,58,59,60,61,62,63,64,65,66,67,68,69,70,71,72,73,74,75,76,77,78,79,80,81,82,83,84,85,86,87,88,89,90,91,92,93,94,95,96,97,98,99,100],"tree_info":[0,0,0,0,0,0,0,0,0,0,0,0,0,0,0,0,0,0,0,0,0,0,0,0,0,0,0,0,0,0,0,0,0,0,0,0,0,0,0,0,0,0,0,0,0,0,0,0,0,0,0,0,0,0,0,0,0,0,0,0,0,0,0,0,0,0,0,0,0,0,0,0,0,0,0,0,0,0,0,0,0,0,0,0,0,0,0,0,0,0,0,0,0,0,0,0,0,0,0,0],"trees":[{"base_weights":[1.1680293E-2,1.2017697E0,-2.3514183E0,1.4261186E0,-1.674377E0,3.549795E-2,-7.520508E-1,1.4817464E0,-6.1041277E-2,-1.7834349E-2,-6.240666E-1,4.660264E-1,7.7577144E-1,3.5733253E-1,-1.5694222E-1],"categories":[],"categories_nodes":[],"categories_segments":[],"categories_sizes":[],"default_left":[0,0,0,0,0,0,0,0,0,0,0,0,0,0,0],"id":0,"left_children":[1,3,5,7,9,-1,-1,11,-1,-1,-1,-1,13,-1,-1],"loss_changes":[3.052833E2,4.8968056E1,1.4253098E1,6.420822E0,3.6013193E0,0E0,0E0,2.1040497E0,0E0,0E0,0E0,0E0,4.9525747E0,0E0,0E0],"parents":[2147483647,0,0,1,1,2,2,3,3,4,4,7,7,12,12],"right_children":[2,4,6,8,10,-1,-1,12,-1,-1,-1,-1,14,-1,-1],"split_conditions":[4.3242815E-1,1.587394E-1,-2.882043E-1,6.503637E-2,-3.8770092E-1,3.549795E-2,-7.520508E-1,7.7088124E-1,-6.1041277E-2,-1.7834349E-2,-6.240666E-1,4.660264E-1,-2.0406525E-1,3.5733253E-1,-1.5694222E-1],"split_indices":[27,23,20,13,26,0,0,1,0,0,0,0,22,0,0],"split_type":[0,0,0,0,0,0,0,0,0,0,0,0,0,0,0],"sum_hessian":[1.0654813E2,7.1188194E1,3.535993E1,6.650476E1,4.683434E0,2.1075454E0,3.325238E1,6.439722E1,2.1075454E0,1.1708585E0,3.5125756E0,5.7372066E1,7.0251513E0,5.385949E0,1.6392019E0],"tree_param":{"num_deleted":"0","num_feature":"30","num_nodes":"15","size_leaf_vector":"1"}},{"base_weights":[3.494476E-2,1.1292472E0,-1.4409511E0,1.2813178E0,-5.952912E-1,-4.2381135E-1,-5.242104E-1,1.3138238E0,-4.1037817E-2,1.8236074E-1,-3.959946E-1,9.7589743E-1,-4.7077563E-1,1.1426146E-1,1.3316818E0,3.659164E-1,-9.0774475E-3,4.038405E-1,9.8443076E-2],"categories":[],"categories_nodes":[],"categories_segments":[],"categories_sizes":[],"default_left":[0,0,0,0,0,0,0,0,0,0,0,0,0,0,0,0,0,0,0],"id":1,"left_children":[1,3,5,7,9,11,-1,13,-1,-1,-1,15,-1,-1,17,-1,-1,-1,-1],"loss_changes":[1.6350409E2,1.6003601E1,1.2696495E1,2.6562042E0,5.503894E0,1.9650724E1,0E0,3.6938477E-1,0E0,0E0,0E0,1.4359274E0,0E0,0E0,3.0124664E-1,0E0,0E0,0E0,0E0],"parents":[2147483647,0,0,1,1,2,2,3,3,4,4,5,5,7,7,11,11,14,14],"right_children":[2,4,6,8,10,12,-1,14,-1,-1,-1,16,-1,-1,18,-1,-1,-1,-1],"split_conditions":[6.4709E-2,1.2586342E-1,2.248751E-1,6.030875E-1,-2.0769015E-1,-9.192517E-3,-5.242104E-1,-1.1957119E0,-4.1037817E-2,1.8236074E-1,-3.959946E-1,1.6290243E0,-4.7077563E-1,1.1426146E-1,1.5165753E0,3.659164E-1,-9.0774475E-3,4.038405E-1,9.8443076E-2],"split_indices":[7,20,22,12,1,21,0,14,0,0,0,4,0,0,24,0,0,0,0],"split_type":[0,0,0,0,0,0,0,0,0,0,0,0,0,0,0,0,0,0,0],"sum_hessian":[9.922862E1,5.7115345E1,4.2113277E1,5.2723194E1,4.392149E0,1.0301368E1,3.1811913E1,5.1613644E1,1.1095507E0,1.7116318E0,2.6805172E0,4.702729E0,5.598638E0,1.3887563E0,5.0224888E1,3.6145484E0,1.0881808E0,4.9175266E1,1.0496223E0],"tree_param":{"num_deleted":"0","num_feature":"30","num_nodes":"19","size_leaf_vector":"1"}},{"base_weights":[3.752654E-2,9.894912E-1,-1.16324E0,1.139397E0,-4.666991E-1,3.1126702E-1,-1.3078783E0,1.174566E0,-3.4301482E-2,2.1507809E-1,-9.653755E-1,2.7002084E-1,-1.9043197E-1,2.764689E-2,-1.421196E0,1.2114881E0,4.7170967E-1,-3.6167604E-1,-5.9981808E-2,2.4703693E-1,-2.488525E-1,-4.336171E-1,-1.18983895E-1,1.0368417E-1,3.7057167E-1,-5.6164637E-2,2.4199207E-1],"categories":[],"categories_nodes":[],"categories_segments":[],"categories_sizes":[],"default_left":[0,0,0,0,0,0,0,0,0,0,0,0,0,0,0,0,0,0,0,0,0,0,0,0,0,0,0],"id":2,"left_children":[1,3,5,7,9,11,13,15,-1,-1,17,-1,-1,19,21,23,25,-1,-1,-1,-1,-1,-1,-1,-1,-1,-1],"loss_changes":[9.9773125E1,1.1154812E1,8.641972E0,2.092579E0,3.7918136E0,2.9426231E0,5.3899155E0,5.519409E-1,0E0,0E0,5.1667356E-1,0E0,0E0,3.2384348E0,2.3509979E-1,4.058113E-1,9.8926014E-1,0E0,0E0,0E0,0E0,0E0,0E0,0E0,0E0,0E0,0E0],"parents":[2147483647,0,0,1,1,2,2,3,3,4,4,5,5,6,6,7,7,10,10,13,13,14,14,15,15,16,16],"right_children":[2,4,6,8,10,12,14,16,-1,-1,18,-1,-1,20,22,24,26,-1,-1,-1,-1,-1,-1,-1,-1,-1,-1],"split_conditions":[6.4709E-2,1.2586342E-1,-1.4707318E-1,6.030875E-1,-8.107905E-1,-9.192517E-3,-1.0309078E0,1.293123E0,-3.4301482E-2,2.1507809E-1,3.8179472E-1,2.7002084E-1,-1.9043197E-1,9.897885E-1,2.0795956E0,-8.898687E-1,1.8691341E0,-3.6167604E-1,-5.9981808E-2,2.4703693E-1,-2.488525E-1,-4.336171E-1,-1.18983895E-1,1.0368417E-1,3.7057167E-1,-5.6164637E-2,2.4199207E-1],"split_indices":[7,20,22,12,1,21,21,21,0,0,20,0,0,7,16,19,1,0,0,0,0,0,0,0,0,0,0],"split_type":[0,0,0,0,0,0,0,0,0,0,0,0,0,0,0,0,0,0,0,0,0,0,0,0,0,0,0],"sum_hessian":[8.527696E1,4.7664566E1,3.7612396E1,4.3413013E1,4.251553E0,3.2570062E0,3.4355392E1,4.228987E1,1.1231413E0,1.1305331E0,3.12102E0,2.037492E0,1.2195143E0,2.7461517E0,3.160924E1,3.9491653E1,2.7982192E0,1.9378469E0,1.1831732E0,1.444421E0,1.3017306E0,3.047881E1,1.1304301E0,1.4695237E0,3.802213E1,1.0916314E0,1.7065877E0],"tree_param":{"num_deleted":"0","num_feature":"30","num_nodes":"27","size_leaf_vector":"1"}},{"base_weights":[3.7308566E-2,8.8824624E-1,-1.0060673E0,1.0399127E0,-3.861915E-1,-1.0980354E-1,-1.2263448E0,1.0811002E0,-4.7280405E-2,3.5481152E-1,-3.2093388E-1,2.7027208E-1,-7.123512E-1,-3.817366E-1,-1.4460558E-2,5.1300786E-2,1.105344E0,-5.8167305E-2,2.2936405E-1,1.11688055E-1,-3.2427603E-1,3.4495667E-1,4.0887165E-1,2.2949673E-1,-7.5068325E-2],"categories":[],"categories_nodes":[],"categories_segments":[],"categories_sizes":[],"default_left":[0,0,0,0,0,0,0,0,0,0,0,0,0,0,0,0,0,0,0,0,0,0,0,0,0],"id":3,"left_children":[1,3,5,7,9,11,13,15,-1,17,-1,-1,19,-1,-1,-1,21,-1,-1,-1,-1,-1,23,-1,-1],"loss_changes":[6.473198E1,8.159168E0,6.3346024E0,1.9527512E0,2.9110098E0,5.247624E0,1.3622398E0,5.846138E-1,0E0,8.562021E-1,0E0,0E0,2.5198474E0,0E0,0E0,0E0,5.829544E-1,0E0,0E0,0E0,0E0,0E0,1.034615E0,0E0,0E0],"parents":[2147483647,0,0,1,1,2,2,3,3,4,4,5,5,6,6,7,7,9,9,12,12,16,16,22,22],"right_children":[2,4,6,8,10,12,14,16,-1,18,-1,-1,20,-1,-1,-1,22,-1,-1,-1,-1,-1,24,-1,-1],"split_conditions":[6.4709E-2,1.2586342E-1,4.9679175E-1,5.698286E-2,8.32999E-2,-4.383459E-1,1.9926032E0,-1.1957119E0,-4.7280405E-2,4.366921E-1,-3.2093388E-1,2.7027208E-1,-1.6354671E-1,-3.817366E-1,-1.4460558E-2,5.1300786E-2,1.2667136E0,-5.8167305E-2,2.2936405E-1,1.11688055E-1,-3.2427603E-1,3.4495667E-1,-4.7073412E-1,2.2949673E-1,-7.5068325E-2],"split_indices":[7,20,27,13,1,21,19,14,0,0,0,0,0,0,0,0,21,0,0,0,0,0,13,0,0],"split_type":[0,0,0,0,0,0,0,0,0,0,0,0,0,0,0,0,0,0,0,0,0,0,0,0,0],"sum_hessian":[7.090234E1,3.913445E1,3.176789E1,3.5136944E1,3.997505E0,6.5629773E0,2.5204914E1,3.4062603E1,1.0743434E0,2.1489837E0,1.8485211E0,2.2663128E0,4.2966647E0,2.4178553E1,1.0263599E0,1.0928042E0,3.29698E1,1.1439018E0,1.0050819E0,1.0871716E0,3.209493E0,3.037741E1,2.5923867E0,1.5787275E0,1.0136591E0],"tree_param":{"num_deleted":"0","num_feature":"30","num_nodes":"25","size_leaf_vector":"1"}},{"base_weights":[3.646358E-2,9.353173E-1,-7.826915E-1,1.0135779E0,-8.6186066E-2,5.2349865E-1,-9.5445764E-1,3.2041126E-1,-6.003738E-2,2.5152722E-1,-5.0061584E-2,2.560028E-1,-1.0909133E0,2.3140325E-1,-1.5338367E-1,4.2624988E-2,-3.4709153E-1],"categories":[],"categories_nodes":[],"categories_segments":[],"categories_sizes":[],"default_left":[0,0,0,0,0,0,0,0,0,0,0,0,0,0,0,0,0],"id":4,"left_children":[1,3,5,7,-1,9,11,-1,-1,-1,-1,13,15,-1,-1,-1,-1],"loss_changes":[4.4227413E1,3.0297737E0,7.5559864E0,2.006359E0,0E0,1.0750111E0,4.928934E0,0E0,0E0,0E0,0E0,1.8422939E0,2.2403946E0,0E0,0E0,0E0,0E0],"parents":[2147483647,0,0,1,1,2,2,3,3,5,5,6,6,11,11,12,12],"right_children":[2,4,6,8,-1,10,12,-1,-1,-1,-1,14,16,-1,-1,-1,-1],"split_conditions":[-1.620711E-1,2.2121236E-1,-3.1598815E-1,3.9634088E-4,-8.6186066E-2,2.9325938E-2,-9.764383E-1,3.2041126E-1,-6.003738E-2,2.5152722E-1,-5.0061584E-2,4.2164186E-1,-1.2461281E0,2.3140325E-1,-1.5338367E-1,4.2624988E-2,-3.4709153E-1],"split_indices":[22,7,26,13,0,1,21,0,0,0,0,7,24,0,0,0,0],"split_type":[0,0,0,0,0,0,0,0,0,0,0,0,0,0,0,0,0],"sum_hessian":[5.807282E1,2.7621794E1,3.0451027E1,2.6120733E1,1.5010592E0,3.3009932E0,2.7150034E1,2.5113876E1,1.0068574E0,2.1196296E0,1.1813635E0,2.6618054E0,2.4488228E1,1.5891591E0,1.0726461E0,1.1867293E0,2.3301498E1],"tree_param":{"num_deleted":"0","num_feature":"30","num_nodes":"17","size_leaf_vector":"1"}},{"base_weights":[3.825428E-2,6.7136335E-1,-9.521515E-1,8.351695E-1,-2.4791834E-1,-3.9089393E-2,-3.268152E-1,1.0039436E0,6.876934E-2,1.8176629E-1,-2.2727202E-1,-3.4430094E-2,3.2296813E-1,2.4557348E-1,-6.6796654E-1,-3.5208946E-1,-1.2969087E-3],"categories":[],"categories_nodes":[],"categories_segments":[],"categories_sizes":[],"default_left":[0,0,0,0,0,0,0,0,0,0,0,0,0,0,0,0,0],"id":5,"left_children":[1,3,5,7,-1,9,-1,11,13,-1,-1,-1,-1,-1,15,-1,-1],"loss_changes":[3.108847E1,8.102039E0,2.3820477E0,3.5177135E0,0E0,2.1113014E0,0E0,1.9636898E0,3.904312E0,0E0,0E0,0E0,0E0,0E0,1.2085091E0,0E0,0E0],"parents":[2147483647,0,0,1,1,2,2,3,3,5,5,7,7,8,8,14,14],"right_children":[2,4,6,8,-1,10,-1,12,14,-1,-1,-1,-1,-1,16,-1,-1],"split_conditions":[-8.5889094E-4,6.760904E-1,-3.7311608E-1,7.5668126E-1,-2.4791834E-1,8.32999E-2,-3.268152E-1,-1.4552883E0,-3.8770092E-1,1.8176629E-1,-2.2727202E-1,-3.4430094E-2,3.2296813E-1,2.4557348E-1,-4.2695156E-1,-3.5208946E-1,-1.2969087E-3],"split_indices":[23,27,6,21,0,1,0,28,26,0,0,0,0,0,15,0,0],"split_type":[0,0,0,0,0,0,0,0,0,0,0,0,0,0,0,0,0],"sum_hessian":[4.7560665E1,2.9210327E1,1.8350338E1,2.6729385E1,2.4809413E0,2.5655522E0,1.5784786E1,2.1651432E1,5.0779524E0,1.4345145E0,1.1310377E0,1.2843714E0,2.0367062E1,2.4615924E0,2.61636E0,1.0487757E0,1.5675843E0],"tree_param":{"num_deleted":"0","num_feature":"30","num_nodes":"17","size_leaf_vector":"1"}},{"base_weights":[2.688183E-2,5.977413E-1,-8.778499E-1,7.5534123E-1,-2.1899052E-1,-6.606059E-2,-3.1111154E-1,9.7309864E-1,1.0765166E-1,1.6717374E-1,-2.1940856E-1,4.9632855E-2,3.0503234E-1,2.0888522E-1,-5.3608394E-1,2.8244369E-2,-2.6156488E-1],"categories":[],"categories_nodes":[],"categories_segments":[],"categories_sizes":[],"default_left":[0,0,0,0,0,0,0,0,0,0,0,0,0,0,0,0,0],"id":6,"left_children":[1,3,5,7,-1,9,-1,11,13,-1,-1,-1,-1,-1,15,-1,-1],"loss_changes":[2.1027603E1,5.768918E0,1.9684935E0,3.1082E0,0E0,1.9221112E0,0E0,4.2878532E-1,2.9712703E0,0E0,0E0,0E0,0E0,0E0,8.9471793E-1,0E0,0E0],"parents":[2147483647,0,0,1,1,2,2,3,3,5,5,7,7,8,8,14,14],"right_children":[2,4,6,8,-1,10,-1,12,14,-1,-1,-1,-1,-1,16,-1,-1],"split_conditions":[-8.5889094E-4,6.760904E-1,-2.1791427E-1,5.080515E-1,-2.1899052E-1,8.32999E-2,-3.1111154E-1,-1.4552883E0,-3.7351474E-1,1.6717374E-1,-2.1940856E-1,4.9632855E-2,3.0503234E-1,2.0888522E-1,-5.187071E-1,2.8244369E-2,-2.6156488E-1],"split_indices":[23,27,6,1,0,1,0,28,20,0,0,0,0,0,4,0,0],"split_type":[0,0,0,0,0,0,0,0,0,0,0,0,0,0,0,0,0],"sum_hessian":[3.8697742E1,2.3934856E1,1.4762884E1,2.1780582E1,2.1542735E0,2.652308E0,1.2110576E1,1.5924311E1,5.856272E0,1.4532267E0,1.1990812E0,1.0626006E0,1.4861711E1,3.0164225E0,2.83985E0,1.2372996E0,1.6025503E0],"tree_param":{"num_deleted":"0","num_feature":"30","num_nodes":"17","size_leaf_vector":"1"}},{"base_weights":[1.802987E-2,6.1537737E-1,-7.370314E-1,7.701443E-1,-3.1710428E-1,8.143925E-3,-9.317571E-1,9.2134434E-1,1.9933105E-1,5.9101608E-2,-2.2443292E-1,1.8483353E-1,-1.9528602E-1,-5.7398126E-2,-2.9604647E-1,2.9382405E-1,3.856035E-2,2.1522427E-1,-1.1617253E-1],"categories":[],"categories_nodes":[],"categories_segments":[],"categories_sizes":[],"default_left":[0,0,0,0,0,0,0,0,0,0,0,0,0,0,0,0,0,0,0],"id":7,"left_children":[1,3,5,7,9,11,13,15,17,-1,-1,-1,-1,-1,-1,-1,-1,-1,-1],"loss_changes":[1.5181466E1,2.953887E0,2.166438E0,1.2313328E0,8.965632E-1,2.0334263E0,2.9246712E-1,4.581194E-1,1.7089627E0,0E0,0E0,0E0,0E0,0E0,0E0,0E0,0E0,0E0,0E0],"parents":[2147483647,0,0,1,1,2,2,3,3,4,4,5,5,6,6,7,7,8,8],"right_children":[2,4,6,8,10,12,14,16,18,-1,-1,-1,-1,-1,-1,-1,-1,-1,-1],"split_conditions":[6.4709E-2,1.2529136E-1,-2.798893E-1,7.154165E-1,8.32999E-2,6.760904E-1,2.0201111E-1,1.4327096E0,-3.8770092E-1,5.9101608E-2,-2.2443292E-1,1.8483353E-1,-1.9528602E-1,-5.7398126E-2,-2.9604647E-1,2.9382405E-1,3.856035E-2,2.1522427E-1,-1.1617253E-1],"split_indices":[7,3,21,21,1,27,7,11,26,0,0,0,0,0,0,0,0,0,0],"split_type":[0,0,0,0,0,0,0,0,0,0,0,0,0,0,0,0,0,0,0],"sum_hessian":[3.1653671E1,1.7775799E1,1.3877872E1,1.5394771E1,2.3810272E0,3.0736852E0,1.0804187E1,1.168539E1,3.70938E0,1.3334204E0,1.0476068E0,1.6327835E0,1.4409018E0,1.0576042E0,9.746583E0,1.0668602E1,1.0167886E0,1.8512369E0,1.8581431E0],"tree_param":{"num_deleted":"0","num_feature":"30","num_nodes":"19","size_leaf_vector":"1"}},{"base_weights":[1.44743165E-2,6.627855E-1,-5.895607E-1,7.799392E-1,-5.0275806E-2,3.762941E-1,-7.788604E-1,8.8664967E-1,-6.082002E-2,-6.3988566E-4,1.6970155E-1,5.2949704E-2,-9.030835E-1,2.856167E-1,5.963672E-2,-2.8634566E-1,-8.755345E-2],"categories":[],"categories_nodes":[],"categories_segments":[],"categories_sizes":[],"default_left":[0,0,0,0,0,0,0,0,0,0,0,0,0,0,0,0,0],"id":8,"left_children":[1,3,5,7,-1,9,11,13,-1,-1,-1,-1,15,-1,-1,-1,-1],"loss_changes":[1.1111849E1,1.4610791E0,2.981124E0,1.45503E0,0E0,2.2218841E-1,1.6569195E0,3.1266975E-1,0E0,0E0,0E0,0E0,7.7412605E-2,0E0,0E0,0E0,0E0],"parents":[2147483647,0,0,1,1,2,2,3,3,5,5,6,6,7,7,12,12],"right_children":[2,4,6,8,-1,10,12,14,-1,-1,-1,-1,16,-1,-1,-1,-1],"split_conditions":[-2.4281342E-1,2.2121236E-1,-3.1598815E-1,-1.0684253E-1,-5.0275806E-2,-1.1478778E0,-9.764383E-1,1.2667136E0,-6.082002E-2,-6.3988566E-4,1.6970155E-1,5.2949704E-2,8.227327E-1,2.856167E-1,5.963672E-2,-2.8634566E-1,-8.755345E-2],"split_indices":[23,7,26,13,0,9,21,21,0,0,0,0,19,0,0,0,0],"split_type":[0,0,0,0,0,0,0,0,0,0,0,0,0,0,0,0,0],"sum_hessian":[2.6377487E1,1.2675549E1,1.3701938E1,1.1161547E1,1.5140021E0,2.0835118E0,1.1618426E1,1.0156363E1,1.0051843E0,1.0246753E0,1.0588366E0,1.2884623E0,1.0329964E1,8.923756E0,1.2326064E0,9.010656E0,1.3193079E0],"tree_param":{"num_deleted":"0","num_feature":"30","num_nodes":"17","size_leaf_vector":"1"}},{"base_weights":[1.783096E-2,4.0932688E-1,-8.4394985E-1,6.3195467E-1,-3.6396846E-1,-7.489707E-2,-2.6909786E-1,8.637573E-1,1.9245619E-2,6.618142E-2,-2.3594321E-1,3.7093565E-2,2.8099954E-1,1.9080041E-1,-4.393791E-1,-2.4217738E-1,5.828093E-2],"categories":[],"categories_nodes":[],"categories_segments":[],"categories_sizes":[],"default_left":[0,0,0,0,0,0,0,0,0,0,0,0,0,0,0,0,0],"id":9,"left_children":[1,3,5,7,9,-1,-1,11,13,-1,-1,-1,-1,-1,15,-1,-1],"loss_changes":[8.228487E0,3.1118898E0,1.6434193E-2,1.881329E0,1.2544522E0,0E0,0E0,4.0611362E-1,1.6062707E0,0E0,0E0,0E0,0E0,0E0,9.218048E-1,0E0,0E0],"parents":[2147483647,0,0,1,1,2,2,3,3,4,4,7,7,8,8,14,14],"right_children":[2,4,6,8,10,-1,-1,12,14,-1,-1,-1,-1,-1,16,-1,-1],"split_conditions":[5.7188267E-1,1.2529136E-1,-2.3187962E-1,7.154165E-1,8.32999E-2,-7.489707E-2,-2.6909786E-1,-1.219087E0,-4.0889627E-1,6.618142E-2,-2.3594321E-1,3.7093565E-2,2.8099954E-1,1.9080041E-1,-4.2695156E-1,-2.4217738E-1,5.828093E-2],"split_indices":[27,3,23,21,1,0,0,28,27,0,0,0,0,0,15,0,0],"split_type":[0,0,0,0,0,0,0,0,0,0,0,0,0,0,0,0,0],"sum_hessian":[2.2365196E1,1.57398205E1,6.6253757E0,1.2363274E1,3.3765466E0,1.010494E0,5.6148815E0,8.672517E0,3.6907573E0,1.6170728E0,1.7594737E0,1.0194666E0,7.65305E0,1.4090788E0,2.2816784E0,1.2702335E0,1.0114449E0],"tree_param":{"num_deleted":"0","num_feature":"30","num_nodes":"17","size_leaf_vector":"1"}},{"base_weights":[8.236263E-3,4.180129E-1,-6.6846037E-1,6.279452E-1,-2.9990506E-1,-2.5733693E-3,-2.4449633E-1,1.3935299E-1,2.710941E-1,3.9968506E-2,-1.983318E-1,-1.07676506E-1,1.5529567E-1],"categories":[],"categories_nodes":[],"categories_segments":[],"categories_sizes":[],"default_left":[0,0,0,0,0,0,0,0,0,0,0,0,0],"id":10,"left_children":[1,3,5,7,9,-1,-1,11,-1,-1,-1,-1,-1],"loss_changes":[5.795572E0,2.148393E0,7.556608E-1,1.2731171E0,6.543093E-1,0E0,0E0,1.1148632E0,0E0,0E0,0E0,0E0,0E0],"parents":[2147483647,0,0,1,1,2,2,3,3,4,4,7,7],"right_children":[2,4,6,8,10,-1,-1,12,-1,-1,-1,-1,-1],"split_conditions":[4.2323336E-1,1.2529136E-1,-1.8624793E-1,-3.8509434E-1,8.32999E-2,-2.5733693E-3,-2.4449633E-1,-7.32015E-1,2.710941E-1,3.9968506E-2,-1.983318E-1,-1.07676506E-1,1.5529567E-1],"split_indices":[27,3,20,18,1,0,0,15,0,0,0,0,0],"split_type":[0,0,0,0,0,0,0,0,0,0,0,0,0],"sum_hessian":[1.8892738E1,1.2005207E1,6.8875318E0,9.385919E0,2.619289E0,1.4438275E0,5.443704E0,3.9288146E0,5.4571037E0,1.4780453E0,1.1412436E0,1.7176478E0,2.2111669E0],"tree_param":{"num_deleted":"0","num_feature":"30","num_nodes":"13","size_leaf_vector":"1"}},{"base_weights":[4.221102E-3,6.094086E-1,-3.9256418E-1,2.5794527E-1,-6.8056315E-2,-1.682096E-2,-2.550205E-1,5.3959364E-1,-5.3441185E-1,2.1256135E-1,6.7280517E-3,-8.6813E-3,-2.3720261E-1],"categories":[],"categories_nodes":[],"categories_segments":[],"categories_sizes":[],"default_left":[0,0,0,0,0,0,0,0,0,0,0,0,0],"id":11,"left_children":[1,3,5,-1,-1,7,-1,9,11,-1,-1,-1,-1],"loss_changes":[4.42917E0,1.7240498E0,1.9019381E0,0E0,0E0,2.3448367E0,0E0,3.2825625E-1,5.213978E-1,0E0,0E0,0E0,0E0],"parents":[2147483647,0,0,1,1,2,2,5,5,7,7,8,8],"right_children":[2,4,6,-1,-1,8,-1,10,12,-1,-1,-1,-1],"split_conditions":[-3.1598815E-1,5.698286E-2,1.587394E-1,2.5794527E-1,-6.8056315E-2,3.02769E-1,-2.550205E-1,4.9679175E-1,3.976154E-1,2.1256135E-1,6.7280517E-3,-8.6813E-3,-2.3720261E-1],"split_indices":[26,13,23,0,0,21,0,27,24,0,0,0,0],"split_type":[0,0,0,0,0,0,0,0,0,0,0,0,0],"sum_hessian":[1.644866E1,6.301531E0,1.0147128E1,4.827752E0,1.473779E0,6.1406474E0,4.0064807E0,2.9388494E0,3.201798E0,1.936282E0,1.0025674E0,1.4515562E0,1.7502418E0],"tree_param":{"num_deleted":"0","num_feature":"30","num_nodes":"13","size_leaf_vector":"1"}},{"base_weights":[-1.8023457E-5,3.7848753E-1,-5.244825E-1,-1.6371596E-1,6.7325765E-1,3.886706E-2,-2.2373518E-1,1.7477304E-1,-2.1305214E-1,2.3844601E-1,1.4520745E-2],"categories":[],"categories_nodes":[],"categories_segments":[],"categories_sizes":[],"default_left":[0,0,0,0,0,0,0,0,0,0,0],"id":12,"left_children":[1,3,5,7,9,-1,-1,-1,-1,-1,-1],"loss_changes":[3.1859446E0,1.6000632E0,1.0703456E0,2.0806258E0,4.3508077E-1,0E0,0E0,0E0,0E0,0E0,0E0],"parents":[2147483647,0,0,1,1,2,2,3,3,4,4],"right_children":[2,4,6,8,10,-1,-1,-1,-1,-1,-1],"split_conditions":[6.4709E-2,-7.32015E-1,-2.798893E-1,-6.341799E-1,4.2639562E-1,3.886706E-2,-2.2373518E-1,1.7477304E-1,-2.1305214E-1,2.3844601E-1,1.4520745E-2],"split_indices":[7,15,21,16,28,0,0,0,0,0,0],"split_type":[0,0,0,0,0,0,0,0,0,0,0],"sum_hessian":[1.4049085E1,8.321674E0,5.7274103E0,3.0873556E0,5.234319E0,1.5527995E0,4.1746106E0,1.2771147E0,1.8102409E0,4.154145E0,1.0801746E0],"tree_param":{"num_deleted":"0","num_feature":"30","num_nodes":"11","size_leaf_vector":"1"}},{"base_weights":[4.415277E-3,3.2217094E-1,-5.608628E-1,5.510412E-1,-1.4401703E-1,6.0451697E-3,-2.3126352E-1,7.185827E-1,-4.8310794E-2,-1.5820701E-1,1.15181446E-1,2.3883958E-1,5.812245E-2],"categories":[],"categories_nodes":[],"categories_segments":[],"categories_sizes":[],"default_left":[0,0,0,0,0,0,0,0,0,0,0,0,0],"id":13,"left_children":[1,3,5,7,9,-1,-1,11,-1,-1,-1,-1,-1],"loss_changes":[2.6036215E0,1.0684688E0,6.523485E-1,8.822316E-1,9.807168E-1,0E0,0E0,6.490111E-2,0E0,0E0,0E0,0E0,0E0],"parents":[2147483647,0,0,1,1,2,2,3,3,4,4,7,7],"right_children":[2,4,6,8,10,-1,-1,12,-1,-1,-1,-1,-1],"split_conditions":[-8.5889094E-4,6.807541E-1,-2.1791427E-1,2.7634874E-1,1.0923783E0,6.0451697E-3,-2.3126352E-1,1.4782675E-1,-4.8310794E-2,-1.5820701E-1,1.15181446E-1,2.3883958E-1,5.812245E-2],"split_indices":[23,21,6,12,1,0,0,7,0,0,0,0,0],"split_type":[0,0,0,0,0,0,0,0,0,0,0,0,0],"sum_hessian":[1.2489165E1,8.270305E0,4.21886E0,5.4249606E0,2.8453445E0,1.3601165E0,2.858744E0,4.3842688E0,1.0406915E0,1.6490963E0,1.1962483E0,3.3694997E0,1.0147693E0],"tree_param":{"num_deleted":"0","num_feature":"30","num_nodes":"13","size_leaf_vector":"1"}},{"base_weights":[3.3736825E-3,2.2896081E-1,-2.0108366E-1,5.3565687E-1,-1.6245155E-1,6.689211E-1,6.3853613E-3,1.3359886E-1,-4.9132556E-1,2.2456172E-1,5.9083935E-2,-2.1165217E-1,-3.5914555E-2],"categories":[],"categories_nodes":[],"categories_segments":[],"categories_sizes":[],"default_left":[0,0,0,0,0,0,0,0,0,0,0,0,0],"id":14,"left_children":[1,3,-1,5,7,9,-1,-1,11,-1,-1,-1,-1],"loss_changes":[1.9965307E0,1.2671671E0,0E0,3.795439E-1,1.2354605E0,2.2794008E-2,0E0,0E0,2.1606743E-1,0E0,0E0,0E0,0E0],"parents":[2147483647,0,0,1,1,3,3,4,4,5,5,8,8],"right_children":[2,4,-1,6,8,10,-1,-1,12,-1,-1,-1,-1],"split_conditions":[6.760904E-1,1.8655443E-1,-2.0108366E-1,-1.12140894E-1,-3.9394683E-1,-3.350017E-2,6.3853613E-3,1.3359886E-1,-6.080445E-1,2.2456172E-1,5.9083935E-2,-2.1165217E-1,-3.5914555E-2],"split_indices":[27,1,0,13,23,3,0,0,5,0,0,0,0],"split_type":[0,0,0,0,0,0,0,0,0,0,0,0,0],"sum_hessian":[1.112802E1,8.830916E0,2.2971032E0,4.7446575E0,4.086259E0,3.5297139E0,1.2149436E0,1.3104172E0,2.775842E0,2.5188358E0,1.0108782E0,1.1909258E0,1.5849161E0],"tree_param":{"num_deleted":"0","num_feature":"30","num_nodes":"13","size_leaf_vector":"1"}},{"base_weights":[1.6794765E-3,4.483831E-1,-2.808988E-1,2.1684326E-1,-4.939696E-2,1.9328944E-1,-5.232781E-1,1.4658809E-1,-6.881992E-2,-1.4231503E-2,-2.0091608E-1],"categories":[],"categories_nodes":[],"categories_segments":[],"categories_sizes":[],"default_left":[0,0,0,0,0,0,0,0,0,0,0],"id":15,"left_children":[1,3,5,-1,-1,7,9,-1,-1,-1,-1],"loss_changes":[1.5189346E0,9.031776E-1,9.486964E-1,0E0,0E0,5.1463854E-1,3.2707417E-1,0E0,0E0,0E0,0E0],"parents":[2147483647,0,0,1,1,2,2,5,5,6,6],"right_children":[2,4,6,-1,-1,8,10,-1,-1,-1,-1],"split_conditions":[-3.1598815E-1,5.698286E-2,7.3133833E-3,2.1684326E-1,-4.939696E-2,2.3566872E-1,-4.518377E-1,1.4658809E-1,-6.881992E-2,-1.4231503E-2,-2.0091608E-1],"split_indices":[26,13,21,0,0,0,4,0,0,0,0],"split_type":[0,0,0,0,0,0,0,0,0,0,0],"sum_hessian":[1.0035398E1,3.6611092E0,6.3742886E0,2.4053094E0,1.2557998E0,2.2246132E0,4.1496754E0,1.217757E0,1.0068561E0,1.28811E0,2.8615654E0],"tree_param":{"num_deleted":"0","num_feature":"30","num_nodes":"11","size_leaf_vector":"1"}},{"base_weights":[6.575478E-3,2.922865E-1,-3.8036275E-1,1.9861862E-1,-5.225488E-3,5.3807396E-2,-1.7564629E-1,-1.0797909E-1,1.1081496E-1],"categories":[],"categories_nodes":[],"categories_segments":[],"categories_sizes":[],"default_left":[0,0,0,0,0,0,0,0,0],"id":16,"left_children":[1,3,5,-1,7,-1,-1,-1,-1],"loss_changes":[1.2280209E0,7.049914E-1,6.475675E-1,0E0,7.3432946E-1,0E0,0E0,0E0,0E0],"parents":[2147483647,0,0,1,1,2,2,4,4],"right_children":[2,4,6,-1,8,-1,-1,-1,-1],"split_conditions":[-1.8525831E-1,-3.6464083E-1,-8.5579324E-1,1.9861862E-1,-3.7651902E-1,5.3807396E-2,-1.7564629E-1,-1.0797909E-1,1.1081496E-1],"split_indices":[13,28,24,0,18,0,0,0,0],"split_type":[0,0,0,0,0,0,0,0,0],"sum_hessian":[9.102402E0,5.3768277E0,3.7255743E0,1.8509569E0,3.5258706E0,1.0328552E0,2.692719E0,1.8311744E0,1.6946962E0],"tree_param":{"num_deleted":"0","num_feature":"30","num_nodes":"9","size_leaf_vector":"1"}},{"base_weights":[1.4503998E-2,1.95237E-1,-1.6707307E-1,-2.6264152E-1,3.985338E-1,9.324357E-3,-1.2906016E-1,5.88569E-1,-3.6277227E-2,2.1969363E-1,3.3285893E-2],"categories":[],"categories_nodes":[],"categories_segments":[],"categories_sizes":[],"default_left":[0,0,0,0,0,0,0,0,0,0,0],"id":17,"left_children":[1,3,-1,5,7,-1,-1,9,-1,-1,-1],"loss_changes":[1.0845749E0,8.418175E-1,0E0,1.6287412E-1,6.5175104E-1,0E0,0E0,2.260766E-1,0E0,0E0,0E0],"parents":[2147483647,0,0,1,1,3,3,4,4,7,7],"right_children":[2,4,-1,6,8,-1,-1,10,-1,-1,-1],"split_conditions":[6.760904E-1,-7.32015E-1,-1.6707307E-1,1.0442015E-1,-8.5889094E-4,9.324357E-3,-1.2906016E-1,3.2975286E-1,-3.6277227E-2,2.1969363E-1,3.3285893E-2],"split_indices":[27,15,0,1,23,0,0,27,0,0,0],"split_type":[0,0,0,0,0,0,0,0,0,0,0],"sum_hessian":[8.449146E0,6.9190435E0,1.5301025E0,2.0376964E0,4.881347E0,1.036053E0,1.0016435E0,3.4764864E0,1.4048606E0,2.2623463E0,1.2141402E0],"tree_param":{"num_deleted":"0","num_feature":"30","num_nodes":"11","size_leaf_vector":"1"}},{"base_weights":[6.015734E-3,1.4333625E-1,-2.1286426E-1,1.8746147E-1,-4.9306098E-1,-9.809465E-2,1.7666489E-1,-5.5593684E-2,-1.9779713E-1],"categories":[],"categories_nodes":[],"categories_segments":[],"categories_sizes":[],"default_left":[0,0,0,0,0,0,0,0,0],"id":18,"left_children":[1,-1,3,5,7,-1,-1,-1,-1],"loss_changes":[1.008859E0,0E0,8.4314895E-1,9.112389E-1,9.336209E-2,0E0,0E0,0E0,0E0],"parents":[2147483647,0,0,2,2,3,3,4,4],"right_children":[2,-1,4,6,8,-1,-1,-1,-1],"split_conditions":[-4.1358706E-1,1.4333625E-1,-3.921585E-1,-9.493159E-1,-1.1934667E-1,-9.809465E-2,1.7666489E-1,-5.5593684E-2,-1.9779713E-1],"split_indices":[21,0,4,9,13,0,0,0,0],"split_type":[0,0,0,0,0,0,0,0,0],"sum_hessian":[7.7850375E0,2.0923448E0,5.6926928E0,2.4801667E0,3.212526E0,1.1683286E0,1.3118379E0,1.868517E0,1.3440092E0],"tree_param":{"num_deleted":"0","num_feature":"30","num_nodes":"9","size_leaf_vector":"1"}},{"base_weights":[1.5708768E-3,3.9226997E-1,-2.3010208E-1,1.7935339E-1,-1.548372E-2,3.909321E-2,-1.8503375E-1,1.36609E-1,-2.6821327E-1,1.1342352E-2,-1.3164988E-1],"categories":[],"categories_nodes":[],"categories_segments":[],"categories_sizes":[],"default_left":[0,0,0,0,0,0,0,0,0,0,0],"id":19,"left_children":[1,3,5,-1,-1,7,-1,-1,9,-1,-1],"loss_changes":[8.318365E-1,3.4288466E-1,6.2507796E-1,0E0,0E0,6.7785406E-1,0E0,0E0,1.7994113E-1,0E0,0E0],"parents":[2147483647,0,0,1,1,2,2,5,5,8,8],"right_children":[2,4,6,-1,-1,8,-1,-1,10,-1,-1],"split_conditions":[-3.915256E-1,5.698286E-2,1.587394E-1,1.7935339E-1,-1.548372E-2,3.0421644E-2,-1.8503375E-1,1.36609E-1,-1.7096664E-1,1.1342352E-2,-1.3164988E-1],"split_indices":[26,13,23,0,0,21,0,0,7,0,0],"split_type":[0,0,0,0,0,0,0,0,0,0,0],"sum_hessian":[7.1928873E0,2.4194539E0,4.7734337E0,1.4165536E0,1.0029002E0,3.3441892E0,1.4292445E0,1.2156752E0,2.1285138E0,1.0405701E0,1.0879438E0],"tree_param":{"num_deleted":"0","num_feature":"30","num_nodes":"11","size_leaf_vector":"1"}},{"base_weights":[6.481384E-4,3.3961213E-1,-2.1861741E-1,1.7124231E-1,-2.3584533E-2,4.6355233E-2,-4.1401622E-1,-4.037904E-2,-1.657183E-1],"categories":[],"categories_nodes":[],"categories_segments":[],"categories_sizes":[],"default_left":[0,0,0,0,0,0,0,0,0],"id":20,"left_children":[1,3,5,-1,-1,-1,7,-1,-1],"loss_changes":[6.3460606E-1,3.6908877E-1,4.4211867E-1,0E0,0E0,0E0,6.7772985E-2,0E0,0E0],"parents":[2147483647,0,0,1,1,2,2,6,6],"right_children":[2,4,6,-1,-1,-1,8,-1,-1],"split_conditions":[-3.1598815E-1,5.698286E-2,-2.6644456E-1,1.7124231E-1,-2.3584533E-2,4.6355233E-2,1.587394E-1,-4.037904E-2,-1.657183E-1],"split_indices":[26,13,23,0,0,0,23,0,0],"split_type":[0,0,0,0,0,0,0,0,0],"sum_hessian":[6.5395236E0,2.3530564E0,4.186467E0,1.2804167E0,1.0726396E0,1.5107498E0,2.6757174E0,1.5395869E0,1.1361305E0],"tree_param":{"num_deleted":"0","num_feature":"30","num_nodes":"9","size_leaf_vector":"1"}},{"base_weights":[-6.85809E-4,1.1720442E-1,-1.8071622E-1,5.5965003E-2,-4.3346024E-1,-3.2113466E-2,-1.5731008E-1],"categories":[],"categories_nodes":[],"categories_segments":[],"categories_sizes":[],"default_left":[0,0,0,0,0,0,0],"id":21,"left_children":[1,-1,3,-1,5,-1,-1],"loss_changes":[5.743445E-1,0E0,5.988831E-1,0E0,5.0889492E-2,0E0,0E0],"parents":[2147483647,0,0,2,2,4,4],"right_children":[2,-1,4,-1,6,-1,-1],"split_conditions":[-4.1358706E-1,1.1720442E-1,-3.921585E-1,5.5965003E-2,-3.5671335E-1,-3.2113466E-2,-1.5731008E-1],"split_indices":[21,0,4,0,13,0,0],"split_type":[0,0,0,0,0,0,0],"sum_hessian":[6.149537E0,1.5688773E0,4.58066E0,1.9740454E0,2.6066146E0,1.0421454E0,1.5644691E0],"tree_param":{"num_deleted":"0","num_feature":"30","num_nodes":"7","size_leaf_vector":"1"}},{"base_weights":[-3.4534452E-3,2.4456894E-1,-2.5628337E-1,1.2931901E-1,-4.2183336E-2,2.1373438E-2,-1.3642448E-1],"categories":[],"categories_nodes":[],"categories_segments":[],"categories_sizes":[],"default_left":[0,0,0,0,0,0,0],"id":22,"left_children":[1,3,5,-1,-1,-1,-1],"loss_changes":[4.9556905E-1,3.4769574E-1,2.8635395E-1,0E0,0E0,0E0,0E0],"parents":[2147483647,0,0,1,1,2,2],"right_children":[2,4,6,-1,-1,-1,-1],"split_conditions":[-1.20513335E-1,3.39748E-1,2.544926E-1,1.2931901E-1,-4.2183336E-2,2.1373438E-2,-1.3642448E-1],"split_indices":[28,17,24,0,0,0,0],"split_type":[0,0,0,0,0,0,0],"sum_hessian":[5.9033246E0,2.996488E0,2.9068363E0,1.938698E0,1.05779E0,1.3386585E0,1.5681778E0],"tree_param":{"num_deleted":"0","num_feature":"30","num_nodes":"7","size_leaf_vector":"1"}},{"base_weights":[-6.595569E-3,1.1373658E-1,-1.5045434E-1,9.85462E-2,-3.339126E-1,-6.4036404E-3,-1.4236292E-1],"categories":[],"categories_nodes":[],"categories_segments":[],"categories_sizes":[],"default_left":[0,0,0,0,0,0,0],"id":23,"left_children":[1,-1,3,-1,5,-1,-1],"loss_changes":[4.2789888E-1,0E0,6.0031235E-1,0E0,1.8913525E-1,0E0,0E0],"parents":[2147483647,0,0,2,2,4,4],"right_children":[2,-1,4,-1,6,-1,-1],"split_conditions":[-5.731202E-1,1.1373658E-1,-1.0032531E0,9.85462E-2,-3.3636764E-1,-6.4036404E-3,-1.4236292E-1],"split_indices":[23,0,24,0,13,0,0],"split_type":[0,0,0,0,0,0,0],"sum_hessian":[5.683476E0,1.099662E0,4.583814E0,1.0505884E0,3.533226E0,1.4537921E0,2.079434E0],"tree_param":{"num_deleted":"0","num_feature":"30","num_nodes":"7","size_leaf_vector":"1"}},{"base_weights":[4.5355097E-3,2.0209618E-1,-2.83844E-1,4.1722298E-1,-7.5894736E-2,-1.3386744E-2,-1.14455566E-1,1.6950609E-1,1.119464E-2],"categories":[],"categories_nodes":[],"categories_segments":[],"categories_sizes":[],"default_left":[0,0,0,0,0,0,0,0,0],"id":24,"left_children":[1,3,5,7,-1,-1,-1,-1,-1],"loss_changes":[4.2336187E-1,5.359644E-1,5.3719E-2,1.6773182E-1,0E0,0E0,0E0,0E0,0E0],"parents":[2147483647,0,0,1,1,2,2,3,3],"right_children":[2,4,6,8,-1,-1,-1,-1,-1],"split_conditions":[7.154165E-1,3.2980138E-1,-5.050456E-1,-2.140427E-1,-7.5894736E-2,-1.3386744E-2,-1.14455566E-1,1.6950609E-1,1.119464E-2],"split_indices":[21,10,4,28,0,0,0,0,0],"split_type":[0,0,0,0,0,0,0,0,0],"sum_hessian":[5.424124E0,3.396487E0,2.027637E0,2.3627446E0,1.0337423E0,1.010239E0,1.017398E0,1.3502088E0,1.0125359E0],"tree_param":{"num_deleted":"0","num_feature":"30","num_nodes":"9","size_leaf_vector":"1"}},{"base_weights":[1.1894172E-3,-9.80462E-2,1.6271524E-1,1.3829607E-1,-8.072326E-2],"categories":[],"categories_nodes":[],"categories_segments":[],"categories_sizes":[],"default_left":[0,0,0,0,0],"id":25,"left_children":[1,-1,3,-1,-1],"loss_changes":[3.8113648E-1,0E0,7.441934E-1,0E0,0E0],"parents":[2147483647,0,0,2,2],"right_children":[2,-1,4,-1,-1],"split_conditions":[-7.32015E-1,-9.80462E-2,1.4782675E-1,1.3829607E-1,-8.072326E-2],"split_indices":[15,0,7,0,0],"split_type":[0,0,0,0,0],"sum_hessian":[5.189974E0,1.3748122E0,3.8151615E0,2.2164688E0,1.5986925E0],"tree_param":{"num_deleted":"0","num_feature":"30","num_nodes":"5","size_leaf_vector":"1"}},{"base_weights":[-4.5825434E-3,9.973247E-2,-1.6375285E-1,-1.2553439E-1,4.3357454E-2],"categories":[],"categories_nodes":[],"categories_segments":[],"categories_sizes":[],"default_left":[0,0,0,0,0],"id":26,"left_children":[1,-1,3,-1,-1],"loss_changes":[3.7505493E-1,0E0,4.3181968E-1,0E0,0E0],"parents":[2147483647,0,0,2,2],"right_children":[2,-1,4,-1,-1],"split_conditions":[-4.1358706E-1,9.973247E-2,-4.2695156E-1,-1.2553439E-1,4.3357454E-2],"split_indices":[21,0,15,0,0],"split_type":[0,0,0,0,0],"sum_hessian":[4.9767222E0,1.2472433E0,3.729479E0,1.846528E0,1.882951E0],"tree_param":{"num_deleted":"0","num_feature":"30","num_nodes":"5","size_leaf_vector":"1"}},{"base_weights":[-4.231789E-4,8.583613E-2,-1.8813343E-1,4.2594407E-2,-1.0870614E-1],"categories":[],"categories_nodes":[],"categories_segments":[],"categories_sizes":[],"default_left":[0,0,0,0,0],"id":27,"left_children":[1,-1,3,-1,-1],"loss_changes":[3.6795112E-1,0E0,2.8908348E-1,0E0,0E0],"parents":[2147483647,0,0,2,2],"right_children":[2,-1,4,-1,-1],"split_conditions":[-3.1598815E-1,8.583613E-2,-2.6644456E-1,4.2594407E-2,-1.0870614E-1],"split_indices":[26,0,23,0,0],"split_type":[0,0,0,0,0],"sum_hessian":[4.840097E0,1.7082111E0,3.1318858E0,1.1458199E0,1.986066E0],"tree_param":{"num_deleted":"0","num_feature":"30","num_nodes":"5","size_leaf_vector":"1"}},{"base_weights":[2.8500506E-3,1.6274856E-1,-7.8408726E-2,-4.9216386E-2,1.2794726E-1],"categories":[],"categories_nodes":[],"categories_segments":[],"categories_sizes":[],"default_left":[0,0,0,0,0],"id":28,"left_children":[1,3,-1,-1,-1],"loss_changes":[2.8215215E-1,4.2763358E-1,0E0,0E0,0E0],"parents":[2147483647,0,0,1,1],"right_children":[2,4,-1,-1,-1],"split_conditions":[1.2529136E-1,-3.7651902E-1,-7.8408726E-2,-4.9216386E-2,1.2794726E-1],"split_indices":[3,18,0,0,0],"split_type":[0,0,0,0,0],"sum_hessian":[4.6717587E0,3.1496491E0,1.5221096E0,1.5754644E0,1.5741847E0],"tree_param":{"num_deleted":"0","num_feature":"30","num_nodes":"5","size_leaf_vector":"1"}},{"base_weights":[3.1226133E-3,9.0355925E-2,-1.3823295E-1,-1.0508227E-1,3.4909002E-2],"categories":[],"categories_nodes":[],"categories_segments":[],"categories_sizes":[],"default_left":[0,0,0,0,0],"id":29,"left_children":[1,-1,3,-1,-1],"loss_changes":[2.7384973E-1,0E0,2.7958512E-1,0E0,0E0],"parents":[2147483647,0,0,2,2],"right_children":[2,-1,4,-1,-1],"split_conditions":[-4.383459E-1,9.0355925E-2,-4.2695156E-1,-1.0508227E-1,3.4909002E-2],"split_indices":[21,0,15,0,0],"split_type":[0,0,0,0,0],"sum_hessian":[4.5114994E0,1.0875593E0,3.4239402E0,1.663056E0,1.760884E0],"tree_param":{"num_deleted":"0","num_feature":"30","num_nodes":"5","size_leaf_vector":"1"}},{"base_weights":[5.9410688E-3,1.7973943E-1,-7.73865E-2,-5.5850755E-2,1.1319621E-1],"categories":[],"categories_nodes":[],"categories_segments":[],"categories_sizes":[],"default_left":[0,0,0,0,0],"id":30,"left_children":[1,3,-1,-1,-1],"loss_changes":[2.9466403E-1,3.4883457E-1,0E0,0E0,0E0],"parents":[2147483647,0,0,1,1],"right_children":[2,4,-1,-1,-1],"split_conditions":[2.544926E-1,-9.493159E-1,-7.73865E-2,-5.5850755E-2,1.1319621E-1],"split_indices":[24,9,0,0,0],"split_type":[0,0,0,0,0],"sum_hessian":[4.413735E0,2.853415E0,1.5603198E0,1.0207696E0,1.8326453E0],"tree_param":{"num_deleted":"0","num_feature":"30","num_nodes":"5","size_leaf_vector":"1"}},{"base_weights":[1.3248394E-3,7.827783E-2,-1.627372E-1,3.6808923E-2,-9.4010405E-2],"categories":[],"categories_nodes":[],"categories_segments":[],"categories_sizes":[],"default_left":[0,0,0,0,0],"id":31,"left_children":[1,-1,3,-1,-1],"loss_changes":[2.661606E-1,0E0,2.033023E-1,0E0,0E0],"parents":[2147483647,0,0,2,2],"right_children":[2,-1,4,-1,-1],"split_conditions":[-3.915256E-1,7.827783E-2,-2.6644456E-1,3.6808923E-2,-9.4010405E-2],"split_indices":[26,0,23,0,0],"split_type":[0,0,0,0,0],"sum_hessian":[4.252277E0,1.4180442E0,2.834233E0,1.0430963E0,1.7911367E0],"tree_param":{"num_deleted":"0","num_feature":"30","num_nodes":"5","size_leaf_vector":"1"}},{"base_weights":[4.8625874E-3,1.5118761E-1,-7.148701E-2,-7.7647485E-2,1.1761352E-1],"categories":[],"categories_nodes":[],"categories_segments":[],"categories_sizes":[],"default_left":[0,0,0,0,0],"id":32,"left_children":[1,3,-1,-1,-1],"loss_changes":[2.1844962E-1,4.779994E-1,0E0,0E0,0E0],"parents":[2147483647,0,0,1,1],"right_children":[2,4,-1,-1,-1],"split_conditions":[1.4782675E-1,-8.2211435E-1,-7.148701E-2,-7.7647485E-2,1.1761352E-1],"split_indices":[7,5,0,0,0],"split_type":[0,0,0,0,0],"sum_hessian":[4.127225E0,2.8127687E0,1.3144561E0,1.0132726E0,1.799496E0],"tree_param":{"num_deleted":"0","num_feature":"30","num_nodes":"5","size_leaf_vector":"1"}},{"base_weights":[-1.9732036E-3,7.905166E-2,-1.3573256E-1,4.0699944E-2,-9.713632E-2],"categories":[],"categories_nodes":[],"categories_segments":[],"categories_sizes":[],"default_left":[0,0,0,0,0],"id":33,"left_children":[1,-1,3,-1,-1],"loss_changes":[2.1275127E-1,0E0,2.46764E-1,0E0,0E0],"parents":[2147483647,0,0,2,2],"right_children":[2,-1,4,-1,-1],"split_conditions":[-3.5416582E-1,7.905166E-2,-3.921585E-1,4.0699944E-2,-9.713632E-2],"split_indices":[21,0,4,0,0],"split_type":[0,0,0,0,0],"sum_hessian":[3.984051E0,1.0098184E0,2.9742327E0,1.3313806E0,1.642852E0],"tree_param":{"num_deleted":"0","num_feature":"30","num_nodes":"5","size_leaf_vector":"1"}},{"base_weights":[3.0487254E-3,1.4705805E-1,-7.1971424E-2,-2.8123142E-2,1.0282873E-1],"categories":[],"categories_nodes":[],"categories_segments":[],"categories_sizes":[],"default_left":[0,0,0,0,0],"id":34,"left_children":[1,3,-1,-1,-1],"loss_changes":[2.0626701E-1,2.0594701E-1,0E0,0E0,0E0],"parents":[2147483647,0,0,1,1],"right_children":[2,4,-1,-1,-1],"split_conditions":[-8.5889094E-4,-3.7651902E-1,-7.1971424E-2,-2.8123142E-2,1.0282873E-1],"split_indices":[23,18,0,0,0],"split_type":[0,0,0,0,0],"sum_hessian":[3.8870819E0,2.6883085E0,1.1987733E0,1.4388669E0,1.2494416E0],"tree_param":{"num_deleted":"0","num_feature":"30","num_nodes":"5","size_leaf_vector":"1"}},{"base_weights":[3.2224588E-3,5.5741057E-2,-5.5424158E-2],"categories":[],"categories_nodes":[],"categories_segments":[],"categories_sizes":[],"default_left":[0,0,0],"id":35,"left_children":[1,-1,-1],"loss_changes":[1.9853827E-1,0E0,0E0],"parents":[2147483647,0,0],"right_children":[2,-1,-1],"split_conditions":[-1.20513335E-1,5.5741057E-2,-5.5424158E-2],"split_indices":[28,0,0],"split_type":[0,0,0],"sum_hessian":[3.7847617E0,1.9257458E0,1.8590157E0],"tree_param":{"num_deleted":"0","num_feature":"30","num_nodes":"3","size_leaf_vector":"1"}},{"base_weights":[2.404767E-3,1.5802291E-1,-6.548075E-2,9.205824E-2,-2.8590137E-2],"categories":[],"categories_nodes":[],"categories_segments":[],"categories_sizes":[],"default_left":[0,0,0,0,0],"id":36,"left_children":[1,3,-1,-1,-1],"loss_changes":[1.9721228E-1,1.5588662E-1,0E0,0E0,0E0],"parents":[2147483647,0,0,1,1],"right_children":[2,4,-1,-1,-1],"split_conditions":[-1.1934667E-1,9.032403E-2,-6.548075E-2,9.205824E-2,-2.8590137E-2],"split_indices":[13,28,0,0,0],"split_type":[0,0,0,0,0],"sum_hessian":[3.7383997E0,2.3588548E0,1.3795449E0,1.35273E0,1.0061249E0],"tree_param":{"num_deleted":"0","num_feature":"30","num_nodes":"5","size_leaf_vector":"1"}},{"base_weights":[1.714537E-3,5.0065406E-2,-5.380807E-2],"categories":[],"categories_nodes":[],"categories_segments":[],"categories_sizes":[],"default_left":[0,0,0],"id":37,"left_children":[1,-1,-1],"loss_changes":[1.6895296E-1,0E0,0E0],"parents":[2147483647,0,0],"right_children":[2,-1,-1],"split_conditions":[2.381817E-1,5.0065406E-2,-5.380807E-2],"split_indices":[1,0,0],"split_type":[0,0,0],"sum_hessian":[3.6482484E0,1.9488975E0,1.699351E0],"tree_param":{"num_deleted":"0","num_feature":"30","num_nodes":"3","size_leaf_vector":"1"}},{"base_weights":[4.3030994E-4,6.205301E-2,-1.4074546E-1,-8.718976E-2,1.51441675E-2],"categories":[],"categories_nodes":[],"categories_segments":[],"categories_sizes":[],"default_left":[0,0,0,0,0],"id":38,"left_children":[1,-1,3,-1,-1],"loss_changes":[1.6342098E-1,0E0,1.10176995E-1,0E0,0E0],"parents":[2147483647,0,0,2,2],"right_children":[2,-1,4,-1,-1],"split_conditions":[-3.1598815E-1,6.205301E-2,-2.7309468E-1,-8.718976E-2,1.51441675E-2],"split_indices":[26,0,9,0,0],"split_type":[0,0,0,0,0],"sum_hessian":[3.6090014E0,1.2768995E0,2.3321018E0,1.0159448E0,1.316157E0],"tree_param":{"num_deleted":"0","num_feature":"30","num_nodes":"5","size_leaf_vector":"1"}},{"base_weights":[-2.0298648E-3,1.4279541E-1,-6.0637407E-2,8.854289E-2,-2.9104251E-2],"categories":[],"categories_nodes":[],"categories_segments":[],"categories_sizes":[],"default_left":[0,0,0,0,0],"id":39,"left_children":[1,3,-1,-1,-1],"loss_changes":[1.6045782E-1,1.4628771E-1,0E0,0E0,0E0],"parents":[2147483647,0,0,1,1],"right_children":[2,4,-1,-1,-1],"split_conditions":[-1.1934667E-1,2.1545912E-1,-6.0637407E-2,8.854289E-2,-2.9104251E-2],"split_indices":[13,24,0,0,0],"split_type":[0,0,0,0,0],"sum_hessian":[3.5410926E0,2.22038E0,1.3207126E0,1.2166934E0,1.0036867E0],"tree_param":{"num_deleted":"0","num_feature":"30","num_nodes":"5","size_leaf_vector":"1"}},{"base_weights":[-1.331861E-3,-6.082089E-2,1.18537314E-1,1.02546535E-1,-5.7961166E-2],"categories":[],"categories_nodes":[],"categories_segments":[],"categories_sizes":[],"default_left":[0,0,0,0,0],"id":40,"left_children":[1,-1,3,-1,-1],"loss_changes":[1.3181996E-1,0E0,3.047894E-1,0E0,0E0],"parents":[2147483647,0,0,2,2],"right_children":[2,-1,4,-1,-1],"split_conditions":[-7.6106054E-1,-6.082089E-2,1.4782675E-1,1.02546535E-1,-5.7961166E-2],"split_indices":[5,0,7,0,0],"split_type":[0,0,0,0,0],"sum_hessian":[3.4647224E0,1.0347763E0,2.429946E0,1.3596241E0,1.0703219E0],"tree_param":{"num_deleted":"0","num_feature":"30","num_nodes":"5","size_leaf_vector":"1"}},{"base_weights":[-4.094235E-3,5.5940863E-2,-1.328482E-1,1.7988088E-2,-7.833731E-2],"categories":[],"categories_nodes":[],"categories_segments":[],"categories_sizes":[],"default_left":[0,0,0,0,0],"id":41,"left_children":[1,-1,3,-1,-1],"loss_changes":[1.3205364E-1,0E0,9.463775E-2,0E0,0E0],"parents":[2147483647,0,0,2,2],"right_children":[2,-1,4,-1,-1],"split_conditions":[-3.1598815E-1,5.5940863E-2,3.02769E-1,1.7988088E-2,-7.833731E-2],"split_indices":[26,0,21,0,0],"split_type":[0,0,0,0,0],"sum_hessian":[3.3724403E0,1.1790748E0,2.1933656E0,1.089035E0,1.1043307E0],"tree_param":{"num_deleted":"0","num_feature":"30","num_nodes":"5","size_leaf_vector":"1"}},{"base_weights":[-4.0612067E-3,5.132086E-2,-4.5043796E-2],"categories":[],"categories_nodes":[],"categories_segments":[],"categories_sizes":[],"default_left":[0,0,0],"id":42,"left_children":[1,-1,-1],"loss_changes":[1.3604589E-1,0E0,0E0],"parents":[2147483647,0,0],"right_children":[2,-1,-1],"split_conditions":[-3.2534704E-1,5.132086E-2,-4.5043796E-2],"split_indices":[13,0,0],"split_type":[0,0,0],"sum_hessian":[3.3136644E0,1.429231E0,1.8844334E0],"tree_param":{"num_deleted":"0","num_feature":"30","num_nodes":"3","size_leaf_vector":"1"}},{"base_weights":[-1.3372261E-3,-4.9274188E-2,4.4267386E-2],"categories":[],"categories_nodes":[],"categories_segments":[],"categories_sizes":[],"default_left":[0,0,0],"id":43,"left_children":[1,-1,-1],"loss_changes":[1.2803146E-1,0E0,0E0],"parents":[2147483647,0,0],"right_children":[2,-1,-1],"split_conditions":[-4.2695156E-1,-4.9274188E-2,4.4267386E-2],"split_indices":[15,0,0],"split_type":[0,0,0],"sum_hessian":[3.279074E0,1.5166075E0,1.7624664E0],"tree_param":{"num_deleted":"0","num_feature":"30","num_nodes":"3","size_leaf_vector":"1"}},{"base_weights":[-2.0929852E-3,5.3991046E-2,-4.261044E-2],"categories":[],"categories_nodes":[],"categories_segments":[],"categories_sizes":[],"default_left":[0,0,0],"id":44,"left_children":[1,-1,-1],"loss_changes":[1.3410623E-1,0E0,0E0],"parents":[2147483647,0,0],"right_children":[2,-1,-1],"split_conditions":[-5.0288856E-1,5.3991046E-2,-4.261044E-2],"split_indices":[4,0,0],"split_type":[0,0,0],"sum_hessian":[3.26027E0,1.2925882E0,1.9676819E0],"tree_param":{"num_deleted":"0","num_feature":"30","num_nodes":"3","size_leaf_vector":"1"}},{"base_weights":[1.2863784E-3,1.2509228E-1,-5.6054115E-2,-3.236943E-2,9.095221E-2],"categories":[],"categories_nodes":[],"categories_segments":[],"categories_sizes":[],"default_left":[0,0,0,0,0],"id":45,"left_children":[1,3,-1,-1,-1],"loss_changes":[1.2197268E-1,1.6349505E-1,0E0,0E0,0E0],"parents":[2147483647,0,0,1,1],"right_children":[2,4,-1,-1,-1],"split_conditions":[1.2529136E-1,-3.7651902E-1,-5.6054115E-2,-3.236943E-2,9.095221E-2],"split_indices":[3,18,0,0,0],"split_type":[0,0,0,0,0],"sum_hessian":[3.2331889E0,2.1520596E0,1.0811291E0,1.1030332E0,1.0490265E0],"tree_param":{"num_deleted":"0","num_feature":"30","num_nodes":"5","size_leaf_vector":"1"}},{"base_weights":[1.9231036E-3,5.566407E-2,-1.2565576E-1,1.6056877E-2,-7.382224E-2],"categories":[],"categories_nodes":[],"categories_segments":[],"categories_sizes":[],"default_left":[0,0,0,0,0],"id":46,"left_children":[1,-1,3,-1,-1],"loss_changes":[1.20831825E-1,0E0,7.903019E-2,0E0,0E0],"parents":[2147483647,0,0,2,2],"right_children":[2,-1,4,-1,-1],"split_conditions":[-3.1598815E-1,5.566407E-2,1.6341448E-1,1.6056877E-2,-7.382224E-2],"split_indices":[26,0,24,0,0],"split_type":[0,0,0,0,0],"sum_hessian":[3.1626678E0,1.1102782E0,2.0523894E0,1.0482107E0,1.0041788E0],"tree_param":{"num_deleted":"0","num_feature":"30","num_nodes":"5","size_leaf_vector":"1"}},{"base_weights":[7.4488856E-4,4.7999177E-2,-4.0532783E-2],"categories":[],"categories_nodes":[],"categories_segments":[],"categories_sizes":[],"default_left":[0,0,0],"id":47,"left_children":[1,-1,-1],"loss_changes":[1.1051149E-1,0E0,0E0],"parents":[2147483647,0,0],"right_children":[2,-1,-1],"split_conditions":[-3.2534704E-1,4.7999177E-2,-4.0532783E-2],"split_indices":[13,0,0],"split_type":[0,0,0],"sum_hessian":[3.1088045E0,1.3493463E0,1.7594581E0],"tree_param":{"num_deleted":"0","num_feature":"30","num_nodes":"3","size_leaf_vector":"1"}},{"base_weights":[2.4119332E-3,4.3738957E-2,-4.727198E-2],"categories":[],"categories_nodes":[],"categories_segments":[],"categories_sizes":[],"default_left":[0,0,0],"id":48,"left_children":[1,-1,-1],"loss_changes":[1.16569504E-1,0E0,0E0],"parents":[2147483647,0,0],"right_children":[2,-1,-1],"split_conditions":[2.381817E-1,4.3738957E-2,-4.727198E-2],"split_indices":[1,0,0],"split_type":[0,0,0],"sum_hessian":[3.080134E0,1.6711107E0,1.4090232E0],"tree_param":{"num_deleted":"0","num_feature":"30","num_nodes":"3","size_leaf_vector":"1"}},{"base_weights":[8.477882E-4,-5.1493403E-2,3.6144998E-2],"categories":[],"categories_nodes":[],"categories_segments":[],"categories_sizes":[],"default_left":[0,0,0],"id":49,"left_children":[1,-1,-1],"loss_changes":[1.0429053E-1,0E0,0E0],"parents":[2147483647,0,0],"right_children":[2,-1,-1],"split_conditions":[-6.080445E-1,-5.1493403E-2,3.6144998E-2],"split_indices":[5,0,0],"split_type":[0,0,0],"sum_hessian":[3.0516233E0,1.0716995E0,1.9799238E0],"tree_param":{"num_deleted":"0","num_feature":"30","num_nodes":"3","size_leaf_vector":"1"}},{"base_weights":[-3.2096184E-3,5.302583E-2,-3.812386E-2],"categories":[],"categories_nodes":[],"categories_segments":[],"categories_sizes":[],"default_left":[0,0,0],"id":50,"left_children":[1,-1,-1],"loss_changes":[1.1243779E-1,0E0,0E0],"parents":[2147483647,0,0],"right_children":[2,-1,-1],"split_conditions":[-3.1598815E-1,5.302583E-2,-3.812386E-2],"split_indices":[26,0,0],"split_type":[0,0,0],"sum_hessian":[3.036266E0,1.0638077E0,1.9724584E0],"tree_param":{"num_deleted":"0","num_feature":"30","num_nodes":"3","size_leaf_vector":"1"}},{"base_weights":[1.5443738E-3,3.42082E-2,-5.017469E-2],"categories":[],"categories_nodes":[],"categories_segments":[],"categories_sizes":[],"default_left":[0,0,0],"id":51,"left_children":[1,-1,-1],"loss_changes":[9.510891E-2,0E0,0E0],"parents":[2147483647,0,0],"right_children":[2,-1,-1],"split_conditions":[1.2529136E-1,3.42082E-2,-5.017469E-2],"split_indices":[3,0,0],"split_type":[0,0,0],"sum_hessian":[3.0048702E0,1.997922E0,1.0069482E0],"tree_param":{"num_deleted":"0","num_feature":"30","num_nodes":"3","size_leaf_vector":"1"}},{"base_weights":[-2.9659718E-3,3.6181394E-2,-4.7778096E-2],"categories":[],"categories_nodes":[],"categories_segments":[],"categories_sizes":[],"default_left":[0,0,0],"id":52,"left_children":[1,-1,-1],"loss_changes":[9.595826E-2,0E0,0E0],"parents":[2147483647,0,0],"right_children":[2,-1,-1],"split_conditions":[9.032403E-2,3.6181394E-2,-4.7778096E-2],"split_indices":[28,0,0],"split_type":[0,0,0],"sum_hessian":[2.9739647E0,1.7883753E0,1.1855894E0],"tree_param":{"num_deleted":"0","num_feature":"30","num_nodes":"3","size_leaf_vector":"1"}},{"base_weights":[-5.0424393E-3,-4.5606866E-2,3.9558463E-2],"categories":[],"categories_nodes":[],"categories_segments":[],"categories_sizes":[],"default_left":[0,0,0],"id":53,"left_children":[1,-1,-1],"loss_changes":[9.948475E-2,0E0,0E0],"parents":[2147483647,0,0],"right_children":[2,-1,-1],"split_conditions":[-4.2695156E-1,-4.5606866E-2,3.9558463E-2],"split_indices":[15,0,0],"split_type":[0,0,0],"sum_hessian":[2.9478168E0,1.3683347E0,1.5794821E0],"tree_param":{"num_deleted":"0","num_feature":"30","num_nodes":"3","size_leaf_vector":"1"}},{"base_weights":[-5.068293E-3,3.7522323E-2,-4.9088955E-2],"categories":[],"categories_nodes":[],"categories_segments":[],"categories_sizes":[],"default_left":[0,0,0],"id":54,"left_children":[1,-1,-1],"loss_changes":[1.0162406E-1,0E0,0E0],"parents":[2147483647,0,0],"right_children":[2,-1,-1],"split_conditions":[1.3138774E-1,3.7522323E-2,-4.9088955E-2],"split_indices":[17,0,0],"split_type":[0,0,0],"sum_hessian":[2.9329143E0,1.7268002E0,1.2061139E0],"tree_param":{"num_deleted":"0","num_feature":"30","num_nodes":"3","size_leaf_vector":"1"}},{"base_weights":[-6.536638E-3,4.3626606E-2,-3.6382727E-2],"categories":[],"categories_nodes":[],"categories_segments":[],"categories_sizes":[],"default_left":[0,0,0],"id":55,"left_children":[1,-1,-1],"loss_changes":[8.581651E-2,0E0,0E0],"parents":[2147483647,0,0],"right_children":[2,-1,-1],"split_conditions":[-5.0288856E-1,4.3626606E-2,-3.6382727E-2],"split_indices":[4,0,0],"split_type":[0,0,0],"sum_hessian":[2.91041E0,1.1370735E0,1.7733365E0],"tree_param":{"num_deleted":"0","num_feature":"30","num_nodes":"3","size_leaf_vector":"1"}},{"base_weights":[-2.6977516E-3,-4.9571797E-2,3.355546E-2],"categories":[],"categories_nodes":[],"categories_segments":[],"categories_sizes":[],"default_left":[0,0,0],"id":56,"left_children":[1,-1,-1],"loss_changes":[9.096182E-2,0E0,0E0],"parents":[2147483647,0,0],"right_children":[2,-1,-1],"split_conditions":[-6.080445E-1,-4.9571797E-2,3.355546E-2],"split_indices":[5,0,0],"split_type":[0,0,0],"sum_hessian":[2.8927693E0,1.0129335E0,1.8798358E0],"tree_param":{"num_deleted":"0","num_feature":"30","num_nodes":"3","size_leaf_vector":"1"}},{"base_weights":[-6.033026E-3,4.2149223E-2,-3.9724294E-2],"categories":[],"categories_nodes":[],"categories_segments":[],"categories_sizes":[],"default_left":[0,0,0],"id":57,"left_children":[1,-1,-1],"loss_changes":[9.0434775E-2,0E0,0E0],"parents":[2147483647,0,0],"right_children":[2,-1,-1],"split_conditions":[-2.6221213E-1,4.2149223E-2,-3.9724294E-2],"split_indices":[23,0,0],"split_type":[0,0,0],"sum_hessian":[2.8788307E0,1.2814188E0,1.5974119E0],"tree_param":{"num_deleted":"0","num_feature":"30","num_nodes":"3","size_leaf_vector":"1"}},{"base_weights":[-3.5946139E-3,3.220981E-2,-4.7561307E-2],"categories":[],"categories_nodes":[],"categories_segments":[],"categories_sizes":[],"default_left":[0,0,0],"id":58,"left_children":[1,-1,-1],"loss_changes":[8.321902E-2,0E0,0E0],"parents":[2147483647,0,0],"right_children":[2,-1,-1],"split_conditions":[2.0678502E-1,3.220981E-2,-4.7561307E-2],"split_indices":[24,0,0],"split_type":[0,0,0],"sum_hessian":[2.8503501E0,1.8398353E0,1.0105147E0],"tree_param":{"num_deleted":"0","num_feature":"30","num_nodes":"3","size_leaf_vector":"1"}},{"base_weights":[-6.5694912E-3,4.1513186E-2,-3.813387E-2],"categories":[],"categories_nodes":[],"categories_segments":[],"categories_sizes":[],"default_left":[0,0,0],"id":59,"left_children":[1,-1,-1],"loss_changes":[8.446368E-2,0E0,0E0],"parents":[2147483647,0,0],"right_children":[2,-1,-1],"split_conditions":[-3.2534704E-1,4.1513186E-2,-3.813387E-2],"split_indices":[13,0,0],"split_type":[0,0,0],"sum_hessian":[2.8274207E0,1.2165914E0,1.6108294E0],"tree_param":{"num_deleted":"0","num_feature":"30","num_nodes":"3","size_leaf_vector":"1"}},{"base_weights":[-3.7071106E-3,-4.2170357E-2,3.7695102E-2],"categories":[],"categories_nodes":[],"categories_segments":[],"categories_sizes":[],"default_left":[0,0,0],"id":60,"left_children":[1,-1,-1],"loss_changes":[8.504248E-2,0E0,0E0],"parents":[2147483647,0,0],"right_children":[2,-1,-1],"split_conditions":[-4.2695156E-1,-4.2170357E-2,3.7695102E-2],"split_indices":[15,0,0],"split_type":[0,0,0],"sum_hessian":[2.8059332E0,1.3213145E0,1.4846188E0],"tree_param":{"num_deleted":"0","num_feature":"30","num_nodes":"3","size_leaf_vector":"1"}},{"base_weights":[-3.7716837E-3,4.305995E-2,-3.5680044E-2],"categories":[],"categories_nodes":[],"categories_segments":[],"categories_sizes":[],"default_left":[0,0,0],"id":61,"left_children":[1,-1,-1],"loss_changes":[8.1408076E-2,0E0,0E0],"parents":[2147483647,0,0],"right_children":[2,-1,-1],"split_conditions":[-3.6464083E-1,4.305995E-2,-3.5680044E-2],"split_indices":[28,0,0],"split_type":[0,0,0],"sum_hessian":[2.7925951E0,1.1172044E0,1.6753907E0],"tree_param":{"num_deleted":"0","num_feature":"30","num_nodes":"3","size_leaf_vector":"1"}},{"base_weights":[-6.568798E-4,3.5596162E-2,-4.0507898E-2],"categories":[],"categories_nodes":[],"categories_segments":[],"categories_sizes":[],"default_left":[0,0,0],"id":62,"left_children":[1,-1,-1],"loss_changes":[7.649045E-2,0E0,0E0],"parents":[2147483647,0,0],"right_children":[2,-1,-1],"split_conditions":[2.381817E-1,3.5596162E-2,-4.0507898E-2],"split_indices":[1,0,0],"split_type":[0,0,0],"sum_hessian":[2.7718382E0,1.5301389E0,1.2416993E0],"tree_param":{"num_deleted":"0","num_feature":"30","num_nodes":"3","size_leaf_vector":"1"}},{"base_weights":[-1.7639371E-3,3.4737926E-2,-4.3697886E-2],"categories":[],"categories_nodes":[],"categories_segments":[],"categories_sizes":[],"default_left":[0,0,0],"id":63,"left_children":[1,-1,-1],"loss_changes":[8.0330506E-2,0E0,0E0],"parents":[2147483647,0,0],"right_children":[2,-1,-1],"split_conditions":[1.3138774E-1,3.4737926E-2,-4.3697886E-2],"split_indices":[17,0,0],"split_type":[0,0,0],"sum_hessian":[2.751734E0,1.6219577E0,1.1297765E0],"tree_param":{"num_deleted":"0","num_feature":"30","num_nodes":"3","size_leaf_vector":"1"}},{"base_weights":[-3.6416887E-3,3.7474222E-2,-3.475228E-2],"categories":[],"categories_nodes":[],"categories_segments":[],"categories_sizes":[],"default_left":[0,0,0],"id":64,"left_children":[1,-1,-1],"loss_changes":[6.832283E-2,0E0,0E0],"parents":[2147483647,0,0],"right_children":[2,-1,-1],"split_conditions":[-2.6221213E-1,3.7474222E-2,-3.475228E-2],"split_indices":[23,0,0],"split_type":[0,0,0],"sum_hessian":[2.7335832E0,1.2211217E0,1.5124615E0],"tree_param":{"num_deleted":"0","num_feature":"30","num_nodes":"3","size_leaf_vector":"1"}},{"base_weights":[-1.8041551E-3,-3.800238E-2,3.493968E-2],"categories":[],"categories_nodes":[],"categories_segments":[],"categories_sizes":[],"default_left":[0,0,0],"id":65,"left_children":[1,-1,-1],"loss_changes":[6.956369E-2,0E0,0E0],"parents":[2147483647,0,0],"right_children":[2,-1,-1],"split_conditions":[-4.2695156E-1,-3.800238E-2,3.493968E-2],"split_indices":[15,0,0],"split_type":[0,0,0],"sum_hessian":[2.7113345E0,1.2842962E0,1.4270383E0],"tree_param":{"num_deleted":"0","num_feature":"30","num_nodes":"3","size_leaf_vector":"1"}},{"base_weights":[-2.0793322E-3,4.214639E-2,-3.3225212E-2],"categories":[],"categories_nodes":[],"categories_segments":[],"categories_sizes":[],"default_left":[0,0,0],"id":66,"left_children":[1,-1,-1],"loss_changes":[7.289168E-2,0E0,0E0],"parents":[2147483647,0,0],"right_children":[2,-1,-1],"split_conditions":[-5.0288856E-1,4.214639E-2,-3.3225212E-2],"split_indices":[4,0,0],"split_type":[0,0,0],"sum_hessian":[2.700549E0,1.0414629E0,1.659086E0],"tree_param":{"num_deleted":"0","num_feature":"30","num_nodes":"3","size_leaf_vector":"1"}},{"base_weights":[9.984327E-4,3.0871196E-2,-3.990713E-2],"categories":[],"categories_nodes":[],"categories_segments":[],"categories_sizes":[],"default_left":[0,0,0],"id":67,"left_children":[1,-1,-1],"loss_changes":[6.4022124E-2,0E0,0E0],"parents":[2147483647,0,0],"right_children":[2,-1,-1],"split_conditions":[1.997808E-1,3.0871196E-2,-3.990713E-2],"split_indices":[17,0,0],"split_type":[0,0,0],"sum_hessian":[2.6853786E0,1.6573656E0,1.0280129E0],"tree_param":{"num_deleted":"0","num_feature":"30","num_nodes":"3","size_leaf_vector":"1"}},{"base_weights":[-1.7604908E-3,3.2225266E-2,-3.75532E-2],"categories":[],"categories_nodes":[],"categories_segments":[],"categories_sizes":[],"default_left":[0,0,0],"id":68,"left_children":[1,-1,-1],"loss_changes":[6.290354E-2,0E0,0E0],"parents":[2147483647,0,0],"right_children":[2,-1,-1],"split_conditions":[2.381817E-1,3.2225266E-2,-3.75532E-2],"split_indices":[1,0,0],"split_type":[0,0,0],"sum_hessian":[2.6704617E0,1.4857559E0,1.1847059E0],"tree_param":{"num_deleted":"0","num_feature":"30","num_nodes":"3","size_leaf_vector":"1"}},{"base_weights":[-2.6914945E-3,3.622083E-2,-3.3127982E-2],"categories":[],"categories_nodes":[],"categories_segments":[],"categories_sizes":[],"default_left":[0,0,0],"id":69,"left_children":[1,-1,-1],"loss_changes":[6.191968E-2,0E0,0E0],"parents":[2147483647,0,0],"right_children":[2,-1,-1],"split_conditions":[-2.6221213E-1,3.622083E-2,-3.3127982E-2],"split_indices":[23,0,0],"split_type":[0,0,0],"sum_hessian":[2.6538641E0,1.1806115E0,1.4732527E0],"tree_param":{"num_deleted":"0","num_feature":"30","num_nodes":"3","size_leaf_vector":"1"}},{"base_weights":[-1.0171098E-3,-3.555974E-2,3.3059973E-2],"categories":[],"categories_nodes":[],"categories_segments":[],"categories_sizes":[],"default_left":[0,0,0],"id":70,"left_children":[1,-1,-1],"loss_changes":[6.055521E-2,0E0,0E0],"parents":[2147483647,0,0],"right_children":[2,-1,-1],"split_conditions":[-4.2695156E-1,-3.555974E-2,3.3059973E-2],"split_indices":[15,0,0],"split_type":[0,0,0],"sum_hessian":[2.6338184E0,1.2486644E0,1.3851539E0],"tree_param":{"num_deleted":"0","num_feature":"30","num_nodes":"3","size_leaf_vector":"1"}},{"base_weights":[-1.3892681E-3,2.9750485E-2,-3.9640944E-2],"categories":[],"categories_nodes":[],"categories_segments":[],"categories_sizes":[],"default_left":[0,0,0],"id":71,"left_children":[1,-1,-1],"loss_changes":[6.0754433E-2,0E0,0E0],"parents":[2147483647,0,0],"right_children":[2,-1,-1],"split_conditions":[1.997808E-1,2.9750485E-2,-3.9640944E-2],"split_indices":[17,0,0],"split_type":[0,0,0],"sum_hessian":[2.6242828E0,1.619926E0,1.0043567E0],"tree_param":{"num_deleted":"0","num_feature":"30","num_nodes":"3","size_leaf_vector":"1"}},{"base_weights":[-3.7186404E-3,3.776256E-2,-3.077458E-2],"categories":[],"categories_nodes":[],"categories_segments":[],"categories_sizes":[],"default_left":[0,0,0],"id":72,"left_children":[1,-1,-1],"loss_changes":[5.9167724E-2,0E0,0E0],"parents":[2147483647,0,0],"right_children":[2,-1,-1],"split_conditions":[-3.6464083E-1,3.776256E-2,-3.077458E-2],"split_indices":[28,0,0],"split_type":[0,0,0],"sum_hessian":[2.6102827E0,1.0113463E0,1.5989364E0],"tree_param":{"num_deleted":"0","num_feature":"30","num_nodes":"3","size_leaf_vector":"1"}},{"base_weights":[-6.3876074E-4,-3.2020546E-2,3.807831E-2],"categories":[],"categories_nodes":[],"categories_segments":[],"categories_sizes":[],"default_left":[0,0,0],"id":73,"left_children":[1,-1,-1],"loss_changes":[6.2198862E-2,0E0,0E0],"parents":[2147483647,0,0],"right_children":[2,-1,-1],"split_conditions":[-3.1771687E-1,-3.2020546E-2,3.807831E-2],"split_indices":[18,0,0],"split_type":[0,0,0],"sum_hessian":[2.5946493E0,1.5056803E0,1.0889691E0],"tree_param":{"num_deleted":"0","num_feature":"30","num_nodes":"3","size_leaf_vector":"1"}},{"base_weights":[1.2720352E-3,3.816984E-2,-3.1627275E-2],"categories":[],"categories_nodes":[],"categories_segments":[],"categories_sizes":[],"default_left":[0,0,0],"id":74,"left_children":[1,-1,-1],"loss_changes":[6.155552E-2,0E0,0E0],"parents":[2147483647,0,0],"right_children":[2,-1,-1],"split_conditions":[-3.2534704E-1,3.816984E-2,-3.1627275E-2],"split_indices":[13,0,0],"split_type":[0,0,0],"sum_hessian":[2.5821235E0,1.0958898E0,1.4862337E0],"tree_param":{"num_deleted":"0","num_feature":"30","num_nodes":"3","size_leaf_vector":"1"}},{"base_weights":[2.7617714E-3,3.7432823E-2,-2.8085647E-2],"categories":[],"categories_nodes":[],"categories_segments":[],"categories_sizes":[],"default_left":[0,0,0],"id":75,"left_children":[1,-1,-1],"loss_changes":[5.3620517E-2,0E0,0E0],"parents":[2147483647,0,0],"right_children":[2,-1,-1],"split_conditions":[-4.9847317E-1,3.7432823E-2,-2.8085647E-2],"split_indices":[14,0,0],"split_type":[0,0,0],"sum_hessian":[2.5663102E0,1.002528E0,1.5637821E0],"tree_param":{"num_deleted":"0","num_feature":"30","num_nodes":"3","size_leaf_vector":"1"}},{"base_weights":[4.600526E-3,3.0299332E-2,-3.4826525E-2],"categories":[],"categories_nodes":[],"categories_segments":[],"categories_sizes":[],"default_left":[0,0,0],"id":76,"left_children":[1,-1,-1],"loss_changes":[5.3084E-2,0E0,0E0],"parents":[2147483647,0,0],"right_children":[2,-1,-1],"split_conditions":[9.032403E-2,3.0299332E-2,-3.4826525E-2],"split_indices":[28,0,0],"split_type":[0,0,0],"sum_hessian":[2.5550146E0,1.5111657E0,1.043849E0],"tree_param":{"num_deleted":"0","num_feature":"30","num_nodes":"3","size_leaf_vector":"1"}},{"base_weights":[1.9621262E-3,-3.052576E-2,3.7331842E-2],"categories":[],"categories_nodes":[],"categories_segments":[],"categories_sizes":[],"default_left":[0,0,0],"id":77,"left_children":[1,-1,-1],"loss_changes":[5.7626225E-2,0E0,0E0],"parents":[2147483647,0,0],"right_children":[2,-1,-1],"split_conditions":[-3.1771687E-1,-3.052576E-2,3.7331842E-2],"split_indices":[18,0,0],"split_type":[0,0,0],"sum_hessian":[2.5397363E0,1.4668288E0,1.0729073E0],"tree_param":{"num_deleted":"0","num_feature":"30","num_nodes":"3","size_leaf_vector":"1"}},{"base_weights":[3.3359737E-3,2.9392974E-2,-3.210629E-2],"categories":[],"categories_nodes":[],"categories_segments":[],"categories_sizes":[],"default_left":[0,0,0],"id":78,"left_children":[1,-1,-1],"loss_changes":[4.733308E-2,0E0,0E0],"parents":[2147483647,0,0],"right_children":[2,-1,-1],"split_conditions":[2.381817E-1,2.9392974E-2,-3.210629E-2],"split_indices":[1,0,0],"split_type":[0,0,0],"sum_hessian":[2.5280216E0,1.4213101E0,1.1067115E0],"tree_param":{"num_deleted":"0","num_feature":"30","num_nodes":"3","size_leaf_vector":"1"}},{"base_weights":[1.5812858E-3,3.427986E-2,-2.8214267E-2],"categories":[],"categories_nodes":[],"categories_segments":[],"categories_sizes":[],"default_left":[0,0,0],"id":79,"left_children":[1,-1,-1],"loss_changes":[4.8624795E-2,0E0,0E0],"parents":[2147483647,0,0],"right_children":[2,-1,-1],"split_conditions":[-3.2534704E-1,3.427986E-2,-2.8214267E-2],"split_indices":[13,0,0],"split_type":[0,0,0],"sum_hessian":[2.5150888E0,1.065113E0,1.4499758E0],"tree_param":{"num_deleted":"0","num_feature":"30","num_nodes":"3","size_leaf_vector":"1"}},{"base_weights":[2.8684584E-3,-3.0922482E-2,3.0648025E-2],"categories":[],"categories_nodes":[],"categories_segments":[],"categories_sizes":[],"default_left":[0,0,0],"id":80,"left_children":[1,-1,-1],"loss_changes":[4.7372647E-2,0E0,0E0],"parents":[2147483647,0,0],"right_children":[2,-1,-1],"split_conditions":[-4.2695156E-1,-3.0922482E-2,3.0648025E-2],"split_indices":[15,0,0],"split_type":[0,0,0],"sum_hessian":[2.502375E0,1.1922016E0,1.3101732E0],"tree_param":{"num_deleted":"0","num_feature":"30","num_nodes":"3","size_leaf_vector":"1"}},{"base_weights":[1.9480817E-3,3.1675242E-2,-3.4545712E-2],"categories":[],"categories_nodes":[],"categories_segments":[],"categories_sizes":[],"default_left":[0,0,0],"id":81,"left_children":[1,-1,-1],"loss_changes":[5.4569036E-2,0E0,0E0],"parents":[2147483647,0,0],"right_children":[2,-1,-1],"split_conditions":[-2.0115952E-1,3.1675242E-2,-3.4545712E-2],"split_indices":[6,0,0],"split_type":[0,0,0],"sum_hessian":[2.4946752E0,1.3755944E0,1.1190807E0],"tree_param":{"num_deleted":"0","num_feature":"30","num_nodes":"3","size_leaf_vector":"1"}},{"base_weights":[5.5292185E-4,-3.3142664E-2,2.7327694E-2],"categories":[],"categories_nodes":[],"categories_segments":[],"categories_sizes":[],"default_left":[0,0,0],"id":82,"left_children":[1,-1,-1],"loss_changes":[4.50163E-2,0E0,0E0],"parents":[2147483647,0,0],"right_children":[2,-1,-1],"split_conditions":[-5.6899166E-1,-3.3142664E-2,2.7327694E-2],"split_indices":[15,0,0],"split_type":[0,0,0],"sum_hessian":[2.4770458E0,1.0137235E0,1.4633224E0],"tree_param":{"num_deleted":"0","num_feature":"30","num_nodes":"3","size_leaf_vector":"1"}},{"base_weights":[-1.2813073E-3,2.9226301E-2,-3.3149853E-2],"categories":[],"categories_nodes":[],"categories_segments":[],"categories_sizes":[],"default_left":[0,0,0],"id":83,"left_children":[1,-1,-1],"loss_changes":[4.816999E-2,0E0,0E0],"parents":[2147483647,0,0],"right_children":[2,-1,-1],"split_conditions":[-2.0115952E-1,2.9226301E-2,-3.3149853E-2],"split_indices":[6,0,0],"split_type":[0,0,0],"sum_hessian":[2.4698253E0,1.354109E0,1.1157161E0],"tree_param":{"num_deleted":"0","num_feature":"30","num_nodes":"3","size_leaf_vector":"1"}},{"base_weights":[-2.0334073E-3,-2.8008198E-2,3.2219775E-2],"categories":[],"categories_nodes":[],"categories_segments":[],"categories_sizes":[],"default_left":[0,0,0],"id":84,"left_children":[1,-1,-1],"loss_changes":[4.4547066E-2,0E0,0E0],"parents":[2147483647,0,0],"right_children":[2,-1,-1],"split_conditions":[-3.1771687E-1,-2.8008198E-2,3.2219775E-2],"split_indices":[18,0,0],"split_type":[0,0,0],"sum_hessian":[2.4540296E0,1.4177282E0,1.0363014E0],"tree_param":{"num_deleted":"0","num_feature":"30","num_nodes":"3","size_leaf_vector":"1"}},{"base_weights":[-1.8653343E-4,3.0376503E-2,-3.0332321E-2],"categories":[],"categories_nodes":[],"categories_segments":[],"categories_sizes":[],"default_left":[0,0,0],"id":85,"left_children":[1,-1,-1],"loss_changes":[4.550843E-2,0E0,0E0],"parents":[2147483647,0,0],"right_children":[2,-1,-1],"split_conditions":[-1.20513335E-1,3.0376503E-2,-3.0332321E-2],"split_indices":[28,0,0],"split_type":[0,0,0],"sum_hessian":[2.4452174E0,1.2178154E0,1.227402E0],"tree_param":{"num_deleted":"0","num_feature":"30","num_nodes":"3","size_leaf_vector":"1"}},{"base_weights":[-1.055483E-4,3.197138E-2,-2.8114138E-2],"categories":[],"categories_nodes":[],"categories_segments":[],"categories_sizes":[],"default_left":[0,0,0],"id":86,"left_children":[1,-1,-1],"loss_changes":[4.426477E-2,0E0,0E0],"parents":[2147483647,0,0],"right_children":[2,-1,-1],"split_conditions":[-2.6221213E-1,3.197138E-2,-2.8114138E-2],"split_indices":[23,0,0],"split_type":[0,0,0],"sum_hessian":[2.4326217E0,1.0722239E0,1.3603978E0],"tree_param":{"num_deleted":"0","num_feature":"30","num_nodes":"3","size_leaf_vector":"1"}},{"base_weights":[1.075368E-3,2.6781194E-2,-3.135486E-2],"categories":[],"categories_nodes":[],"categories_segments":[],"categories_sizes":[],"default_left":[0,0,0],"id":87,"left_children":[1,-1,-1],"loss_changes":[4.1160952E-2,0E0,0E0],"parents":[2147483647,0,0],"right_children":[2,-1,-1],"split_conditions":[1.2661614E-1,2.6781194E-2,-3.135486E-2],"split_indices":[17,0,0],"split_type":[0,0,0],"sum_hessian":[2.4179995E0,1.401753E0,1.0162466E0],"tree_param":{"num_deleted":"0","num_feature":"30","num_nodes":"3","size_leaf_vector":"1"}},{"base_weights":[-5.8140216E-4,-3.1188935E-2,2.9635977E-2],"categories":[],"categories_nodes":[],"categories_segments":[],"categories_sizes":[],"default_left":[0,0,0],"id":88,"left_children":[1,-1,-1],"loss_changes":[4.5285456E-2,0E0,0E0],"parents":[2147483647,0,0],"right_children":[2,-1,-1],"split_conditions":[-4.2695156E-1,-3.1188935E-2,2.9635977E-2],"split_indices":[15,0,0],"split_type":[0,0,0],"sum_hessian":[2.408533E0,1.1577624E0,1.2507708E0],"tree_param":{"num_deleted":"0","num_feature":"30","num_nodes":"3","size_leaf_vector":"1"}},{"base_weights":[-8.5359946E-4,3.1236049E-2,-2.7997585E-2],"categories":[],"categories_nodes":[],"categories_segments":[],"categories_sizes":[],"default_left":[0,0,0],"id":89,"left_children":[1,-1,-1],"loss_changes":[4.27326E-2,0E0,0E0],"parents":[2147483647,0,0],"right_children":[2,-1,-1],"split_conditions":[3.2072235E-2,3.1236049E-2,-2.7997585E-2],"split_indices":[21,0,0],"split_type":[0,0,0],"sum_hessian":[2.4011765E0,1.0655721E0,1.3356044E0],"tree_param":{"num_deleted":"0","num_feature":"30","num_nodes":"3","size_leaf_vector":"1"}},{"base_weights":[3.7358978E-4,3.193468E-2,-2.6851017E-2],"categories":[],"categories_nodes":[],"categories_segments":[],"categories_sizes":[],"default_left":[0,0,0],"id":90,"left_children":[1,-1,-1],"loss_changes":[4.18362E-2,0E0,0E0],"parents":[2147483647,0,0],"right_children":[2,-1,-1],"split_conditions":[-4.2795482E-1,3.193468E-2,-2.6851017E-2],"split_indices":[19,0,0],"split_type":[0,0,0],"sum_hessian":[2.3888788E0,1.01113E0,1.3777488E0],"tree_param":{"num_deleted":"0","num_feature":"30","num_nodes":"3","size_leaf_vector":"1"}},{"base_weights":[1.7853933E-3,3.0498961E-2,-2.5947284E-2],"categories":[],"categories_nodes":[],"categories_segments":[],"categories_sizes":[],"default_left":[0,0,0],"id":91,"left_children":[1,-1,-1],"loss_changes":[3.8594153E-2,0E0,0E0],"parents":[2147483647,0,0],"right_children":[2,-1,-1],"split_conditions":[-2.6221213E-1,3.0498961E-2,-2.5947284E-2],"split_indices":[23,0,0],"split_type":[0,0,0],"sum_hessian":[2.38003E0,1.045491E0,1.3345388E0],"tree_param":{"num_deleted":"0","num_feature":"30","num_nodes":"3","size_leaf_vector":"1"}},{"base_weights":[2.627051E-3,-2.841116E-2,2.8480431E-2],"categories":[],"categories_nodes":[],"categories_segments":[],"categories_sizes":[],"default_left":[0,0,0],"id":92,"left_children":[1,-1,-1],"loss_changes":[3.924218E-2,0E0,0E0],"parents":[2147483647,0,0],"right_children":[2,-1,-1],"split_conditions":[-4.2695156E-1,-2.841116E-2,2.8480431E-2],"split_indices":[15,0,0],"split_type":[0,0,0],"sum_hessian":[2.3671153E0,1.1395719E0,1.2275432E0],"tree_param":{"num_deleted":"0","num_feature":"30","num_nodes":"3","size_leaf_vector":"1"}},{"base_weights":[1.874883E-3,2.7463958E-2,-2.9757602E-2],"categories":[],"categories_nodes":[],"categories_segments":[],"categories_sizes":[],"default_left":[0,0,0],"id":93,"left_children":[1,-1,-1],"loss_changes":[3.9538793E-2,0E0,0E0],"parents":[2147483647,0,0],"right_children":[2,-1,-1],"split_conditions":[-2.0115952E-1,2.7463958E-2,-2.9757602E-2],"split_indices":[6,0,0],"split_type":[0,0,0],"sum_hessian":[2.3607714E0,1.3008183E0,1.0599531E0],"tree_param":{"num_deleted":"0","num_feature":"30","num_nodes":"3","size_leaf_vector":"1"}},{"base_weights":[6.4006203E-4,-2.5484335E-2,3.0204704E-2],"categories":[],"categories_nodes":[],"categories_segments":[],"categories_sizes":[],"default_left":[0,0,0],"id":94,"left_children":[1,-1,-1],"loss_changes":[3.7215468E-2,0E0,0E0],"parents":[2147483647,0,0],"right_children":[2,-1,-1],"split_conditions":[-3.262922E-1,-2.5484335E-2,3.0204704E-2],"split_indices":[18,0,0],"split_type":[0,0,0],"sum_hessian":[2.3475099E0,1.3464664E0,1.0010433E0],"tree_param":{"num_deleted":"0","num_feature":"30","num_nodes":"3","size_leaf_vector":"1"}},{"base_weights":[1.878339E-3,2.7390582E-2,-2.6397677E-2],"categories":[],"categories_nodes":[],"categories_segments":[],"categories_sizes":[],"default_left":[0,0,0],"id":95,"left_children":[1,-1,-1],"loss_changes":[3.4877855E-2,0E0,0E0],"parents":[2147483647,0,0],"right_children":[2,-1,-1],"split_conditions":[-1.20513335E-1,2.7390582E-2,-2.6397677E-2],"split_indices":[28,0,0],"split_type":[0,0,0],"sum_hessian":[2.3402374E0,1.1650525E0,1.1751848E0],"tree_param":{"num_deleted":"0","num_feature":"30","num_nodes":"3","size_leaf_vector":"1"}},{"base_weights":[1.6292445E-3,-2.624939E-2,2.603395E-2],"categories":[],"categories_nodes":[],"categories_segments":[],"categories_sizes":[],"default_left":[0,0,0],"id":96,"left_children":[1,-1,-1],"loss_changes":[3.2866646E-2,0E0,0E0],"parents":[2147483647,0,0],"right_children":[2,-1,-1],"split_conditions":[-4.2695156E-1,-2.624939E-2,2.603395E-2],"split_indices":[15,0,0],"split_type":[0,0,0],"sum_hessian":[2.3301895E0,1.1250405E0,1.2051488E0],"tree_param":{"num_deleted":"0","num_feature":"30","num_nodes":"3","size_leaf_vector":"1"}},{"base_weights":[1.0869263E-3,2.6422113E-2,-2.89052E-2],"categories":[],"categories_nodes":[],"categories_segments":[],"categories_sizes":[],"default_left":[0,0,0],"id":97,"left_children":[1,-1,-1],"loss_changes":[3.66685E-2,0E0,0E0],"parents":[2147483647,0,0],"right_children":[2,-1,-1],"split_conditions":[-2.0115952E-1,2.6422113E-2,-2.89052E-2],"split_indices":[6,0,0],"split_type":[0,0,0],"sum_hessian":[2.3250666E0,1.2791843E0,1.0458822E0],"tree_param":{"num_deleted":"0","num_feature":"30","num_nodes":"3","size_leaf_vector":"1"}},{"base_weights":[2.0016647E-5,2.3873186E-2,-2.74038E-2],"categories":[],"categories_nodes":[],"categories_segments":[],"categories_sizes":[],"default_left":[0,0,0],"id":98,"left_children":[1,-1,-1],"loss_changes":[3.1348113E-2,0E0,0E0],"parents":[2147483647,0,0],"right_children":[2,-1,-1],"split_conditions":[-2.2934069E-1,2.3873186E-2,-2.74038E-2],"split_indices":[13,0,0],"split_type":[0,0,0],"sum_hessian":[2.3126442E0,1.305181E0,1.0074632E0],"tree_param":{"num_deleted":"0","num_feature":"30","num_nodes":"3","size_leaf_vector":"1"}},{"base_weights":[-1.0496366E-3,2.787972E-2,-2.533212E-2],"categories":[],"categories_nodes":[],"categories_segments":[],"categories_sizes":[],"default_left":[0,0,0],"id":99,"left_children":[1,-1,-1],"loss_changes":[3.3744946E-2,0E0,0E0],"parents":[2147483647,0,0],"right_children":[2,-1,-1],"split_conditions":[3.2072235E-2,2.787972E-2,-2.533212E-2],"split_indices":[21,0,0],"split_type":[0,0,0],"sum_hessian":[2.3044438E0,1.0296261E0,1.2748176E0],"tree_param":{"num_deleted":"0","num_feature":"30","num_nodes":"3","size_leaf_vector":"1"}}]},"name":"gbtree"},"learner_model_param":{"base_score":"6.2581056E-1","boost_from_average":"1","num_class":"0","num_feature":"30","num_target":"1"},"objective":{"name":"binary:logistic","reg_loss_param":{"scale_pos_weight":"1"}}},"version":[2,1,3]}